{"learner":{"attributes":{"scikit_learn":"{\"_estimator_type\": \"classifier\"}"},"feature_names":["Age","Height","Weight","BMI","L_Knee_ROM","R_Knee_ROM","Symmetry_Index","Pelvic_Tilt_Std","Trunk_Sway_Std","Shoulder_Pelvic_Divergence"],"feature_types":["int","float","float","float","float","float","float","float","float","float"],"gradient_booster":{"model":{"cats":{"enc":[],"feature_segments":[],"sorted_idx":[]},"gbtree_model_param":{"num_parallel_tree":"1","num_trees":"100"},"iteration_indptr":[0,1,2,3,4,5,6,7,8,9,10,11,12,13,14,15,16,17,18,19,20,21,22,23,24,25,26,27,28,29,30,31,32,33,34,35,36,37,38,39,40,41,42,43,44,45,46,47,48,49,50,51,52,53,54,55,56,57,58,59,60,61,62,63,64,65,66,67,68,69,70,71,72,73,74,75,76,77,78,79,80,81,82,83,84,85,86,87,88,89,90,91,92,93,94,95,96,97,98,99,100],"tree_info":[0,0,0,0,0,0,0,0,0,0,0,0,0,0,0,0,0,0,0,0,0,0,0,0,0,0,0,0,0,0,0,0,0,0,0,0,0,0,0,0,0,0,0,0,0,0,0,0,0,0,0,0,0,0,0,0,0,0,0,0,0,0,0,0,0,0,0,0,0,0,0,0,0,0,0,0,0,0,0,0,0,0,0,0,0,0,0,0,0,0,0,0,0,0,0,0,0,0,0,0],"trees":[{"base_weights":[-8.3262773E-7,-5.4044825E-1,8.5149693E-1,7.924454E-1,-1.1662328E0,9.9922635E-2,1.0204683E-2,9.94933E-3,9.1064624E-2,-2.3754525E-1,-4.6263516E-2],"categories":[],"categories_nodes":[],"categories_segments":[],"categories_sizes":[],"default_left":[0,0,0,0,0,0,0,0,0,0,0],"id":0,"left_children":[1,3,5,7,9,-1,-1,-1,-1,-1,-1],"loss_changes":[1.4164576E1,1.6629549E1,1.2211761E0,4.5090055E-1,1.0146845E1,0E0,0E0,0E0,0E0,0E0,0E0],"parents":[2147483647,0,0,1,1,2,2,3,3,4,4],"right_children":[2,4,6,8,10,-1,-1,-1,-1,-1,-1],"split_conditions":[1.02575E0,9.51E-1,5.5E1,7.91E1,8.031875E1,9.9922635E-2,1.0204683E-2,9.94933E-3,9.1064624E-2,-2.3754525E-1,-4.6263516E-2],"split_indices":[6,6,0,5,5,0,0,0,0,0,0],"split_type":[0,0,0,0,0,0,0,0,0,0,0],"sum_hessian":[2.8779854E1,1.782903E1,1.0950825E1,5.6111665E0,1.2217863E1,8.869264E0,2.0815618E0,1.0860323E0,4.5251346E0,3.6201074E0,8.597755E0],"tree_param":{"num_deleted":"0","num_feature":"10","num_nodes":"11","size_leaf_vector":"1"}},{"base_weights":[2.3322715E-3,-4.722155E-1,8.2723695E-1,7.6899993E-1,-9.8545325E-1,9.813089E-2,9.570737E-3,8.934025E-2,6.908984E-3,-1.873754E-1,-4.067764E-2],"categories":[],"categories_nodes":[],"categories_segments":[],"categories_sizes":[],"default_left":[0,0,0,0,0,0,0,0,0,0,0],"id":1,"left_children":[1,3,5,7,9,-1,-1,-1,-1,-1,-1],"loss_changes":[1.2056334E1,1.3214718E1,1.173636E0,4.852543E-1,6.57436E0,0E0,0E0,0E0,0E0,0E0,0E0],"parents":[2147483647,0,0,1,1,2,2,3,3,4,4],"right_children":[2,4,6,8,10,-1,-1,-1,-1,-1,-1],"split_conditions":[1.02575E0,9.51E-1,5.5E1,1.031475E2,8.031875E1,9.813089E-2,9.570737E-3,8.934025E-2,6.908984E-3,-1.873754E-1,-4.067764E-2],"split_indices":[6,6,0,7,5,0,0,0,0,0,0],"split_type":[0,0,0,0,0,0,0,0,0,0,0],"sum_hessian":[2.8800743E1,1.8554398E1,1.02463455E1,5.282019E0,1.3272378E1,8.1817E0,2.0646453E0,4.250142E0,1.0318769E0,4.3527193E0,8.919659E0],"tree_param":{"num_deleted":"0","num_feature":"10","num_nodes":"11","size_leaf_vector":"1"}},{"base_weights":[4.987555E-3,-4.1453257E-1,8.034323E-1,7.458964E-1,-8.434914E-1,9.671955E-2,8.480368E-2,6.5366463E-3,8.736443E-2,-2.1749483E-1,-5.0739974E-2,-4.2348925E-2,5.5425383E-2],"categories":[],"categories_nodes":[],"categories_segments":[],"categories_sizes":[],"default_left":[0,0,0,0,0,0,0,0,0,0,0,0,0],"id":2,"left_children":[1,3,5,7,9,-1,11,-1,-1,-1,-1,-1,-1],"loss_changes":[1.0305436E1,1.0672581E1,1.1648455E0,4.624369E-1,5.6985006E0,0E0,9.6547145E-1,0E0,0E0,0E0,0E0,0E0,0E0],"parents":[2147483647,0,0,1,1,2,2,3,3,4,4,6,6],"right_children":[2,4,6,8,10,-1,12,-1,-1,-1,-1,-1,-1],"split_conditions":[1.02575E0,9.51E-1,2.8649616E1,7.91E1,1.375275E2,9.671955E-2,3.0613163E1,6.5366463E-3,8.736443E-2,-2.1749483E-1,-5.0739974E-2,-4.2348925E-2,5.5425383E-2],"split_indices":[6,6,3,5,8,0,3,0,0,0,0,0,0],"split_type":[0,0,0,0,0,0,0,0,0,0,0,0,0],"sum_hessian":[2.8771555E1,1.9176586E1,9.594968E0,4.9761477E0,1.4200439E1,7.5325403E0,2.0624275E0,1.0253984E0,3.9507492E0,1.7593445E0,1.2441094E1,1.0372539E0,1.0251737E0],"tree_param":{"num_deleted":"0","num_feature":"10","num_nodes":"13","size_leaf_vector":"1"}},{"base_weights":[5.2842656E-3,-3.6962065E-1,7.7995855E-1,7.233131E-1,-7.356651E-1,9.507131E-2,4.311403E-3,4.785512E-3,8.575078E-2,-1.6033173E-1,-2.9848143E-2],"categories":[],"categories_nodes":[],"categories_segments":[],"categories_sizes":[],"default_left":[0,0,0,0,0,0,0,0,0,0,0],"id":3,"left_children":[1,3,5,7,9,-1,-1,-1,-1,-1,-1],"loss_changes":[8.909578E0,8.806309E0,1.2175078E0,4.750142E-1,5.5864525E0,0E0,0E0,0E0,0E0,0E0,0E0],"parents":[2147483647,0,0,1,1,2,2,3,3,4,4],"right_children":[2,4,6,8,10,-1,-1,-1,-1,-1,-1],"split_conditions":[1.02575E0,9.51E-1,5.5E1,1.5955E2,3.1E1,9.507131E-2,4.311403E-3,4.785512E-3,8.575078E-2,-1.6033173E-1,-2.9848143E-2],"split_indices":[6,6,0,1,0,0,0,0,0,0,0],"split_type":[0,0,0,0,0,0,0,0,0,0,0],"sum_hessian":[2.8684654E1,1.968226E1,9.002394E0,4.693225E0,1.4989036E1,7.0730524E0,1.9293412E0,1.002721E0,3.690504E0,4.1283565E0,1.0860679E1],"tree_param":{"num_deleted":"0","num_feature":"10","num_nodes":"11","size_leaf_vector":"1"}},{"base_weights":[7.4829007E-3,-1.6131525E-1,1.798261E-1,-8.7425284E-2,9.344586E-2,-9.213116E-2,2.4703044E-2],"categories":[],"categories_nodes":[],"categories_segments":[],"categories_sizes":[],"default_left":[0,0,0,0,0,0,0],"id":4,"left_children":[1,-1,3,5,-1,-1,-1],"loss_changes":[8.559913E0,0E0,5.66052E0,6.1798983E0,0E0,0E0,0E0],"parents":[2147483647,0,0,2,2,3,3],"right_children":[2,-1,4,6,-1,-1,-1],"split_conditions":[7.197375E1,-1.6131525E-1,1.04325E0,3.1E1,9.344586E-2,-9.213116E-2,2.4703044E-2],"split_indices":[5,0,6,0,0,0,0],"split_type":[0,0,0,0,0,0,0],"sum_hessian":[2.8608536E1,1.9463019E0,2.6662233E1,2.0342228E1,6.3200054E0,5.320975E0,1.5021254E1],"tree_param":{"num_deleted":"0","num_feature":"10","num_nodes":"7","size_leaf_vector":"1"}},{"base_weights":[4.287232E-3,-3.0757445E-1,7.3943263E-1,7.007459E-1,-6.123281E-1,9.253817E-2,4.5087593E-4,8.374565E-2,5.056623E-3,-1.6964583E-1,-3.3690926E-2],"categories":[],"categories_nodes":[],"categories_segments":[],"categories_sizes":[],"default_left":[0,0,0,0,0,0,0,0,0,0,0],"id":5,"left_children":[1,3,5,7,9,-1,-1,-1,-1,-1,-1],"loss_changes":[6.976934E0,6.9980636E0,1.2343278E0,4.4011092E-1,4.4893613E0,0E0,0E0,0E0,0E0,0E0,0E0],"parents":[2147483647,0,0,1,1,2,2,3,3,4,4],"right_children":[2,4,6,8,10,-1,-1,-1,-1,-1,-1],"split_conditions":[1.02575E0,9.51E-1,5.5E1,1.0268125E2,1.375275E2,9.253817E-2,4.5087593E-4,8.374565E-2,5.056623E-3,-1.6964583E-1,-3.3690926E-2],"split_indices":[6,6,0,7,8,0,0,0,0,0,0],"split_type":[0,0,0,0,0,0,0,0,0,0,0],"sum_hessian":[2.8439917E1,2.0377174E1,8.062743E0,4.4277983E0,1.5949375E1,6.2278347E0,1.8349079E0,3.4205372E0,1.007261E0,2.185813E0,1.3763562E1],"tree_param":{"num_deleted":"0","num_feature":"10","num_nodes":"11","size_leaf_vector":"1"}},{"base_weights":[5.189022E-3,-1.3985108E0,1.6876939E-1,-2.8952135E-2,-1.889091E-1,-7.6961875E-1,3.5102987E-1,2.381914E-2,-1.9166274E-1,-1.0030742E-1,5.138399E-2],"categories":[],"categories_nodes":[],"categories_segments":[],"categories_sizes":[],"default_left":[0,0,0,0,0,0,0,0,0,0,0],"id":6,"left_children":[1,3,5,-1,-1,7,9,-1,-1,-1,-1],"loss_changes":[6.967185E0,1.1762395E0,4.9131937E0,0E0,0E0,5.922437E0,5.6783867E0,0E0,0E0,0E0,0E0],"parents":[2147483647,0,0,1,1,2,2,5,5,6,6],"right_children":[2,4,6,-1,-1,8,10,-1,-1,-1,-1],"split_conditions":[7.197375E1,5.4E1,1.375275E2,-2.8952135E-2,-1.889091E-1,2.5788317E1,2.2E1,2.381914E-2,-1.9166274E-1,-1.0030742E-1,5.138399E-2],"split_indices":[5,0,8,0,0,3,0,0,0,0,0],"split_type":[0,0,0,0,0,0,0,0,0,0,0],"sum_hessian":[2.8314632E1,2.1673133E0,2.6147318E1,1.1523991E0,1.0149144E0,3.7284343E0,2.2418884E1,2.4064035E0,1.3220307E0,1.8522836E0,2.05666E1],"tree_param":{"num_deleted":"0","num_feature":"10","num_nodes":"11","size_leaf_vector":"1"}},{"base_weights":[-8.22685E-3,-7.9670244E-1,2.6413634E-1,4.788368E-1,-1.3786546E0,-8.026578E-1,5.139015E-1,8.636598E-3,6.264956E-2,-2.474046E-1,-3.618741E-2,1.532442E-2,-1.6665325E-1,-2.867656E-2,6.630924E-2],"categories":[],"categories_nodes":[],"categories_segments":[],"categories_sizes":[],"default_left":[0,0,0,0,0,0,0,0,0,0,0,0,0,0,0],"id":7,"left_children":[1,3,5,7,9,11,13,-1,-1,-1,-1,-1,-1,-1,-1],"loss_changes":[6.426175E0,6.3611264E0,6.344606E0,1.2834722E-1,5.265791E0,4.06553E0,2.4179025E0,0E0,0E0,0E0,0E0,0E0,0E0,0E0,0E0],"parents":[2147483647,0,0,1,1,2,2,3,3,4,4,5,5,6,6],"right_children":[2,4,6,8,10,12,14,-1,-1,-1,-1,-1,-1,-1,-1],"split_conditions":[7.5005E1,6.405E1,1.375275E2,5.835E1,7.26E1,2.5788317E1,9.123375E1,8.636598E-3,6.264956E-2,-2.474046E-1,-3.618741E-2,1.532442E-2,-1.6665325E-1,-2.867656E-2,6.630924E-2],"split_indices":[4,2,8,2,2,3,7,0,0,0,0,0,0,0,0],"split_type":[0,0,0,0,0,0,0,0,0,0,0,0,0,0,0],"sum_hessian":[2.7943827E1,6.6801205E0,2.1263706E1,2.1483955E0,4.531725E0,3.6139958E0,1.764971E1,1.0205963E0,1.1277993E0,1.4915946E0,3.0401304E0,2.106121E0,1.5078747E0,2.627342E0,1.50223675E1],"tree_param":{"num_deleted":"0","num_feature":"10","num_nodes":"15","size_leaf_vector":"1"}},{"base_weights":[-1.6310759E-2,-2.9284963E-1,7.0075214E-1,6.5997237E-1,-5.4946977E-1,9.032154E-2,-4.2319503E-3,5.0360723E-3,8.036315E-2,-1.5821251E-1,-3.4921523E-2],"categories":[],"categories_nodes":[],"categories_segments":[],"categories_sizes":[],"default_left":[0,0,0,0,0,0,0,0,0,0,0],"id":8,"left_children":[1,3,5,7,9,-1,-1,-1,-1,-1,-1],"loss_changes":[5.8803988E0,5.5853434E0,1.2809253E0,3.9621973E-1,3.0401707E0,0E0,0E0,0E0,0E0,0E0,0E0],"parents":[2147483647,0,0,1,1,2,2,3,3,4,4],"right_children":[2,4,6,8,10,-1,-1,-1,-1,-1,-1],"split_conditions":[1.02575E0,9.51E-1,5.5E1,1.6055E2,7.197375E1,9.032154E-2,-4.2319503E-3,5.0360723E-3,8.036315E-2,-1.5821251E-1,-3.4921523E-2],"split_indices":[6,6,0,1,5,0,0,0,0,0,0],"split_type":[0,0,0,0,0,0,0,0,0,0,0],"sum_hessian":[2.7619793E1,2.0359608E1,7.2601852E0,3.9864109E0,1.6373198E1,5.5362253E0,1.7239602E0,1.0178331E0,2.9685779E0,1.5385857E0,1.4834611E1],"tree_param":{"num_deleted":"0","num_feature":"10","num_nodes":"11","size_leaf_vector":"1"}},{"base_weights":[-1.3941632E-2,-2.637774E-1,6.776851E-1,6.388798E-1,-4.905404E-1,8.9277916E-2,-7.927446E-3,4.792916E-3,7.850782E-2,-7.317194E-3,-8.6799294E-2],"categories":[],"categories_nodes":[],"categories_segments":[],"categories_sizes":[],"default_left":[0,0,0,0,0,0,0,0,0,0,0],"id":9,"left_children":[1,3,5,7,9,-1,-1,-1,-1,-1,-1],"loss_changes":[5.10309E0,4.746071E0,1.3477197E0,3.755442E-1,2.7521925E0,0E0,0E0,0E0,0E0,0E0,0E0],"parents":[2147483647,0,0,1,1,2,2,3,3,4,4],"right_children":[2,4,6,8,10,-1,-1,-1,-1,-1,-1],"split_conditions":[1.02575E0,9.51E-1,2.8649616E1,1.6055E2,1.5710625E2,8.9277916E-2,-7.927446E-3,4.792916E-3,7.850782E-2,-7.317194E-3,-8.6799294E-2],"split_indices":[6,6,3,1,8,0,0,0,0,0,0],"split_type":[0,0,0,0,0,0,0,0,0,0,0],"sum_hessian":[2.749843E1,2.0655628E1,6.8428025E0,3.782308E0,1.687332E1,5.188917E0,1.6538856E0,1.0134921E0,2.768816E0,8.579922E0,8.293398E0],"tree_param":{"num_deleted":"0","num_feature":"10","num_nodes":"11","size_leaf_vector":"1"}},{"base_weights":[-8.44659E-3,-6.536137E-1,2.360371E-1,4.8438022E-1,-1.1371722E0,-7.4561477E-1,4.8359326E-1,6.1407972E-2,1.1807359E-2,-1.9764495E-1,-2.9616056E-2,1.2777926E-2,-1.449687E-1,6.3262023E-3,8.007896E-2],"categories":[],"categories_nodes":[],"categories_segments":[],"categories_sizes":[],"default_left":[0,0,0,0,0,0,0,0,0,0,0,0,0,0,0],"id":10,"left_children":[1,3,5,7,9,11,13,-1,-1,-1,-1,-1,-1,-1,-1],"loss_changes":[4.6439977E0,5.0012627E0,5.555385E0,7.53929E-2,3.6316757E0,3.0745342E0,2.3063097E0,0E0,0E0,0E0,0E0,0E0,0E0,0E0,0E0],"parents":[2147483647,0,0,1,1,2,2,3,3,4,4,5,5,6,6],"right_children":[2,4,6,8,10,12,14,-1,-1,-1,-1,-1,-1,-1,-1],"split_conditions":[7.5005E1,6.405E1,1.375275E2,7.145E1,7.26E1,2.5788317E1,6.815E1,6.1407972E-2,1.1807359E-2,-1.9764495E-1,-2.9616056E-2,1.2777926E-2,-1.449687E-1,6.3262023E-3,8.007896E-2],"split_indices":[4,2,8,4,2,3,2,0,0,0,0,0,0,0,0],"split_type":[0,0,0,0,0,0,0,0,0,0,0,0,0,0,0],"sum_hessian":[2.7464085E1,7.08749E0,2.0376595E1,2.1130335E0,4.9744563E0,3.6985545E0,1.667804E1,1.0609651E0,1.0520685E0,1.8140558E0,3.1604006E0,2.0161083E0,1.6824464E0,7.688759E0,8.989282E0],"tree_param":{"num_deleted":"0","num_feature":"10","num_nodes":"15","size_leaf_vector":"1"}},{"base_weights":[-1.2875368E-2,-1.044949E0,1.297242E-1,-1.04670515E-2,-1.6367786E-1,-6.599295E-2,8.6466216E-2,-6.7514256E-2,2.1508154E-2],"categories":[],"categories_nodes":[],"categories_segments":[],"categories_sizes":[],"default_left":[0,0,0,0,0,0,0,0,0],"id":11,"left_children":[1,3,5,-1,-1,7,-1,-1,-1],"loss_changes":[4.2823963E0,1.793587E0,3.7459314E0,0E0,0E0,3.771823E0,0E0,0E0,0E0],"parents":[2147483647,0,0,1,1,2,2,5,5],"right_children":[2,4,6,-1,-1,8,-1,-1,-1],"split_conditions":[7.197375E1,5.5E1,1.04325E0,-1.04670515E-2,-1.6367786E-1,3.1E1,8.6466216E-2,-6.7514256E-2,2.1508154E-2],"split_indices":[5,0,6,0,0,0,0,0,0],"split_type":[0,0,0,0,0,0,0,0,0],"sum_hessian":[2.7176592E1,2.5309339E0,2.4645657E1,1.4322627E0,1.0986713E0,2.0181454E1,4.464203E0,5.9293203E0,1.4252134E1],"tree_param":{"num_deleted":"0","num_feature":"10","num_nodes":"9","size_leaf_vector":"1"}},{"base_weights":[-1.5328293E-2,-1.9504444E-1,7.063272E-1,6.150423E-1,-3.7318352E-1,5.6942543E-3,8.332929E-2,4.6802927E-3,7.6363236E-2,2.3281516E-3,-7.333755E-2],"categories":[],"categories_nodes":[],"categories_segments":[],"categories_sizes":[],"default_left":[0,0,0,0,0,0,0,0,0,0,0],"id":12,"left_children":[1,3,5,7,9,-1,-1,-1,-1,-1,-1],"loss_changes":[3.7629447E0,3.5720608E0,4.2988992E-1,3.4868598E-1,2.8173892E0,0E0,0E0,0E0,0E0,0E0,0E0],"parents":[2147483647,0,0,1,1,2,2,3,3,4,4],"right_children":[2,4,6,8,10,-1,-1,-1,-1,-1,-1],"split_conditions":[1.04325E0,9.51E-1,8.252375E1,1.6055E2,1.5710625E2,5.6942543E-3,8.332929E-2,4.6802927E-3,7.6363236E-2,2.3281516E-3,-7.333755E-2],"split_indices":[6,6,4,1,8,0,0,0,0,0,0],"split_type":[0,0,0,0,0,0,0,0,0,0,0],"sum_hessian":[2.6951977E1,2.2162504E1,4.789472E0,3.5529377E0,1.8609566E1,1.020167E0,3.7693052E0,1.0090603E0,2.5438776E0,9.303987E0,9.30558E0],"tree_param":{"num_deleted":"0","num_feature":"10","num_nodes":"11","size_leaf_vector":"1"}},{"base_weights":[-9.033733E-3,-9.323322E-1,1.2434072E-1,1.1429573E-2,-1.395106E-1,-6.333662E-1,2.9437354E-1,1.7958874E-2,-1.3237116E-1,7.853764E-2,-8.041623E-3],"categories":[],"categories_nodes":[],"categories_segments":[],"categories_sizes":[],"default_left":[0,0,0,0,0,0,0,0,0,0,0],"id":13,"left_children":[1,3,5,-1,-1,7,9,-1,-1,-1,-1],"loss_changes":[3.5559306E0,1.9242504E0,3.4448245E0,0E0,0E0,3.0171983E0,3.9899335E0,0E0,0E0,0E0,0E0],"parents":[2147483647,0,0,1,1,2,2,5,5,6,6],"right_children":[2,4,6,-1,-1,8,10,-1,-1,-1,-1],"split_conditions":[7.197375E1,6.998625E1,1.375275E2,1.1429573E-2,-1.395106E-1,7.235E1,1.56775E2,1.7958874E-2,-1.3237116E-1,7.853764E-2,-8.041623E-3],"split_indices":[5,5,8,0,0,2,8,0,0,0,0],"split_type":[0,0,0,0,0,0,0,0,0,0,0],"sum_hessian":[2.6934708E1,2.6436224E0,2.4291086E1,1.0413908E0,1.6022315E0,3.9525614E0,2.0338524E1,2.1548514E0,1.79771E0,8.330036E0,1.2008488E1],"tree_param":{"num_deleted":"0","num_feature":"10","num_nodes":"11","size_leaf_vector":"1"}},{"base_weights":[-1.3135311E-2,-2.9166985E-1,4.127301E-1,-8.8999856E-1,9.515861E-2,7.109902E-1,-1.7432743E-1,-1.4912245E-1,-1.6951825E-2,6.268888E-2,-4.8107877E-2,9.22027E-2,-2.3451915E-3,4.5738198E-2,-9.347223E-2],"categories":[],"categories_nodes":[],"categories_segments":[],"categories_sizes":[],"default_left":[0,0,0,0,0,0,0,0,0,0,0,0,0,0,0],"id":14,"left_children":[1,3,5,7,9,11,13,-1,-1,-1,-1,-1,-1,-1,-1],"loss_changes":[3.403993E0,4.0938787E0,2.1130672E0,2.7353091E0,3.801871E0,1.219713E0,2.6516805E0,0E0,0E0,0E0,0E0,0E0,0E0,0E0,0E0],"parents":[2147483647,0,0,1,1,2,2,3,3,4,4,5,5,6,6],"right_children":[2,4,6,8,10,12,14,-1,-1,-1,-1,-1,-1,-1,-1],"split_conditions":[9.99125E-1,8.031875E1,1.6225874E2,1.5859375E2,9.69125E-1,2.8649616E1,1.0066125E2,-1.4912245E-1,-1.6951825E-2,6.268888E-2,-4.8107877E-2,9.22027E-2,-2.3451915E-3,4.5738198E-2,-9.347223E-2],"split_indices":[6,5,8,8,6,3,7,0,0,0,0,0,0,0,0],"split_type":[0,0,0,0,0,0,0,0,0,0,0,0,0,0,0],"sum_hessian":[2.6682192E1,1.6322004E1,1.03601885E1,5.898191E0,1.0423813E1,6.729894E0,3.6302946E0,2.632042E0,3.266149E0,5.3755536E0,5.048259E0,5.029338E0,1.7005562E0,2.200604E0,1.4296906E0],"tree_param":{"num_deleted":"0","num_feature":"10","num_nodes":"15","size_leaf_vector":"1"}},{"base_weights":[-1.405673E-2,-1.6872674E-1,6.6806483E-1,5.7678366E-1,-3.1802663E-1,5.1159873E-3,8.0232464E-2,4.9829516E-3,7.280047E-2,-9.691495E-2,-1.4189744E-2],"categories":[],"categories_nodes":[],"categories_segments":[],"categories_sizes":[],"default_left":[0,0,0,0,0,0,0,0,0,0,0],"id":15,"left_children":[1,3,5,7,9,-1,-1,-1,-1,-1,-1],"loss_changes":[3.009762E0,2.7637005E0,3.9603162E-1,3.0026853E-1,2.151376E0,0E0,0E0,0E0,0E0,0E0,0E0],"parents":[2147483647,0,0,1,1,2,2,3,3,4,4],"right_children":[2,4,6,8,10,-1,-1,-1,-1,-1,-1],"split_conditions":[1.04325E0,9.51E-1,7.432125E1,1.6065E2,1.375275E2,5.1159873E-3,8.0232464E-2,4.9829516E-3,7.280047E-2,-9.691495E-2,-1.4189744E-2],"split_indices":[6,6,5,1,8,0,0,0,0,0,0],"split_type":[0,0,0,0,0,0,0,0,0,0,0],"sum_hessian":[2.6459133E1,2.2182035E1,4.277098E0,3.2233555E0,1.895868E1,1.0113122E0,3.2657862E0,1.0152092E0,2.208146E0,3.077849E0,1.5880831E1],"tree_param":{"num_deleted":"0","num_feature":"10","num_nodes":"11","size_leaf_vector":"1"}},{"base_weights":[-9.937667E-3,-8.354609E-1,1.14544444E-1,1.0138583E-2,-1.2284424E-1,-3.6278552E-1,3.3102313E-1,-8.5902885E-2,5.5243917E-2,-2.9519984E-2,7.509523E-2],"categories":[],"categories_nodes":[],"categories_segments":[],"categories_sizes":[],"default_left":[0,0,0,0,0,0,0,0,0,0,0],"id":16,"left_children":[1,3,5,-1,-1,7,9,-1,-1,-1,-1],"loss_changes":[2.9099133E0,1.4900589E0,2.6699622E0,0E0,0E0,4.1881447E0,4.82364E0,0E0,0E0,0E0,0E0],"parents":[2147483647,0,0,1,1,2,2,5,5,6,6],"right_children":[2,4,6,-1,-1,8,10,-1,-1,-1,-1],"split_conditions":[7.197375E1,6.998625E1,3.1E1,1.0138583E-2,-1.2284424E-1,9.955E-1,1.6405E2,-8.5902885E-2,5.5243917E-2,-2.9519984E-2,7.509523E-2],"split_indices":[5,5,0,0,0,6,1,0,0,0,0],"split_type":[0,0,0,0,0,0,0,0,0,0,0],"sum_hessian":[2.6385534E1,2.708983E0,2.367655E1,1.0198128E0,1.6891701E0,7.1765633E0,1.6499987E1,4.693244E0,2.4833193E0,6.7423797E0,9.757607E0],"tree_param":{"num_deleted":"0","num_feature":"10","num_nodes":"11","size_leaf_vector":"1"}},{"base_weights":[-1.1173169E-2,-1.4861178E-1,6.3841116E-1,5.5772895E-1,-2.839337E-1,7.802856E-2,4.214307E-3,4.4463584E-3,7.104462E-2,3.9170276E-2,-4.131782E-2],"categories":[],"categories_nodes":[],"categories_segments":[],"categories_sizes":[],"default_left":[0,0,0,0,0,0,0,0,0,0,0],"id":17,"left_children":[1,3,5,7,9,-1,-1,-1,-1,-1,-1],"loss_changes":[2.5198321E0,2.378735E0,3.8435102E-1,2.8760886E-1,1.922045E0,0E0,0E0,0E0,0E0,0E0,0E0],"parents":[2147483647,0,0,1,1,2,2,3,3,4,4],"right_children":[2,4,6,8,10,-1,-1,-1,-1,-1,-1],"split_conditions":[1.04325E0,9.51E-1,8.58E1,1.6055E2,1.5665E2,7.802856E-2,4.214307E-3,4.4463584E-3,7.104462E-2,3.9170276E-2,-4.131782E-2],"split_indices":[6,6,2,1,1,0,0,0,0,0,0],"split_type":[0,0,0,0,0,0,0,0,0,0,0],"sum_hessian":[2.6161871E1,2.2229738E1,3.9321327E0,3.072209E0,1.9157528E1,2.9270604E0,1.0050722E0,1.0005667E0,2.0716424E0,2.7501545E0,1.6407373E1],"tree_param":{"num_deleted":"0","num_feature":"10","num_nodes":"11","size_leaf_vector":"1"}},{"base_weights":[-3.498794E-3,-7.701806E-1,1.1417595E-1,-1.14516E-3,-1.2866618E-1,2.322851E-1,-7.408221E-1,-3.810929E-3,7.523575E-2,-1.764189E-1,5.880445E-2],"categories":[],"categories_nodes":[],"categories_segments":[],"categories_sizes":[],"default_left":[0,0,0,0,0,0,0,0,0,0,0],"id":18,"left_children":[1,3,5,-1,-1,7,9,-1,-1,-1,-1],"loss_changes":[2.539494E0,1.4527633E0,2.6389494E0,0E0,0E0,3.1540332E0,5.3941536E0,0E0,0E0,0E0,0E0],"parents":[2147483647,0,0,1,1,2,2,5,5,6,6],"right_children":[2,4,6,-1,-1,8,10,-1,-1,-1,-1],"split_conditions":[7.197375E1,5.5E1,1.05925E2,-1.14516E-3,-1.2866618E-1,1.003775E2,7.41E1,-3.810929E-3,7.523575E-2,-1.764189E-1,5.880445E-2],"split_indices":[5,0,7,0,0,7,2,0,0,0,0],"split_type":[0,0,0,0,0,0,0,0,0,0,0],"sum_hessian":[2.6173388E1,2.7448668E0,2.342852E1,1.525713E0,1.2191538E0,2.1224848E1,2.2036726E0,1.4574199E1,6.6506486E0,1.0598712E0,1.1438016E0],"tree_param":{"num_deleted":"0","num_feature":"10","num_nodes":"11","size_leaf_vector":"1"}},{"base_weights":[-8.712163E-3,-2.617506E-1,3.2828978E-1,-8.4509313E-1,1.1866365E-1,5.472807E-1,-6.110884E-2,-3.472011E-2,-1.7392379E-1,5.9334844E-2,-4.064307E-2,8.639442E-2,-2.5899604E-2],"categories":[],"categories_nodes":[],"categories_segments":[],"categories_sizes":[],"default_left":[0,0,0,0,0,0,0,0,0,0,0,0,0],"id":19,"left_children":[1,3,5,7,9,11,-1,-1,-1,-1,-1,-1,-1],"loss_changes":[2.3828852E0,3.6377592E0,2.8020153E0,2.2521586E0,2.8647032E0,2.8420396E0,0E0,0E0,0E0,0E0,0E0,0E0,0E0],"parents":[2147483647,0,0,1,1,2,2,3,3,4,4,5,5],"right_children":[2,4,6,8,10,12,-1,-1,-1,-1,-1,-1,-1],"split_conditions":[9.955E-1,8.031875E1,1.0402625E2,7.782E1,9.69125E-1,2.7386549E1,-6.110884E-2,-3.472011E-2,-1.7392379E-1,5.9334844E-2,-4.064307E-2,8.639442E-2,-2.5899604E-2],"split_indices":[6,5,7,5,6,3,0,0,0,0,0,0,0],"split_type":[0,0,0,0,0,0,0,0,0,0,0,0,0],"sum_hessian":[2.593603E1,1.4940916E1,1.0995113E1,5.4153275E0,9.525588E0,9.254967E0,1.7401474E0,4.370167E0,1.0451608E0,4.9346685E0,4.59092E0,6.5937586E0,2.661208E0],"tree_param":{"num_deleted":"0","num_feature":"10","num_nodes":"13","size_leaf_vector":"1"}},{"base_weights":[-1.3592061E-2,-7.319323E-1,9.912326E-2,-3.0148898E-3,-1.1880255E-1,-5.168685E-1,2.5116068E-1,1.9550784E-2,-1.0842069E-1,7.417129E-2,-8.582582E-3],"categories":[],"categories_nodes":[],"categories_segments":[],"categories_sizes":[],"default_left":[0,0,0,0,0,0,0,0,0,0,0],"id":20,"left_children":[1,3,5,-1,-1,7,9,-1,-1,-1,-1],"loss_changes":[2.2327302E0,1.1605661E0,2.3720431E0,0E0,0E0,2.259623E0,3.3492146E0,0E0,0E0,0E0,0E0],"parents":[2147483647,0,0,1,1,2,2,5,5,6,6],"right_children":[2,4,6,-1,-1,8,10,-1,-1,-1,-1],"split_conditions":[7.197375E1,5.5E1,1.375275E2,-3.0148898E-3,-1.1880255E-1,7.235E1,1.56775E2,1.9550784E-2,-1.0842069E-1,7.417129E-2,-8.582582E-3],"split_indices":[5,0,8,0,0,2,8,0,0,0,0],"split_type":[0,0,0,0,0,0,0,0,0,0,0],"sum_hessian":[2.5679428E1,2.7377808E0,2.2941647E1,1.4983681E0,1.2394127E0,4.0664577E0,1.8875189E1,2.0933483E0,1.9731095E0,7.1971955E0,1.1677994E1],"tree_param":{"num_deleted":"0","num_feature":"10","num_nodes":"11","size_leaf_vector":"1"}},{"base_weights":[-1.7002828E-2,-1.4352584E-1,6.118013E-1,-5.058672E-1,9.261517E-2,5.9200968E-3,7.518598E-2,1.6416272E-2,-1.3044314E-1,-5.416472E-2,5.2746933E-2],"categories":[],"categories_nodes":[],"categories_segments":[],"categories_sizes":[],"default_left":[0,0,0,0,0,0,0,0,0,0,0],"id":21,"left_children":[1,3,5,7,9,-1,-1,-1,-1,-1,-1],"loss_changes":[2.189963E0,1.9982841E0,3.1275403E-1,5.1118526E0,4.32724E0,0E0,0E0,0E0,0E0,0E0,0E0],"parents":[2147483647,0,0,1,1,2,2,3,3,4,4],"right_children":[2,4,6,8,10,-1,-1,-1,-1,-1,-1],"split_conditions":[1.04325E0,1.6405E2,8.46275E1,1.00125E2,3.1E1,5.9200968E-3,7.518598E-2,1.6416272E-2,-1.3044314E-1,-5.416472E-2,5.2746933E-2],"split_indices":[6,1,4,7,0,0,0,0,0,0,0],"split_type":[0,0,0,0,0,0,0,0,0,0,0],"sum_hessian":[2.5422844E1,2.1806799E1,3.6160443E0,8.153545E0,1.3653254E1,1.0188519E0,2.5971923E0,4.8655586E0,3.2879868E0,5.4534574E0,8.199797E0],"tree_param":{"num_deleted":"0","num_feature":"10","num_nodes":"11","size_leaf_vector":"1"}},{"base_weights":[-1.5349897E-2,-1.3275376E-1,5.9264797E-1,6.716305E-2,-2.313069E-1,7.395214E-2,5.216473E-3,-6.360122E-2,3.2000653E-3],"categories":[],"categories_nodes":[],"categories_segments":[],"categories_sizes":[],"default_left":[0,0,0,0,0,0,0,0,0],"id":22,"left_children":[1,3,5,-1,7,-1,-1,-1,-1],"loss_changes":[1.9547613E0,1.9664462E0,3.1362438E-1,0E0,2.2683942E0,0E0,0E0,0E0,0E0],"parents":[2147483647,0,0,1,1,2,2,4,4],"right_children":[2,4,6,-1,8,-1,-1,-1,-1],"split_conditions":[1.04325E0,9.34625E-1,1.749E2,6.716305E-2,1.6405E2,7.395214E-2,5.216473E-3,-6.360122E-2,3.2000653E-3],"split_indices":[6,6,1,0,1,0,0,0,0],"split_type":[0,0,0,0,0,0,0,0,0],"sum_hessian":[2.5282583E1,2.1845827E1,3.4367561E0,1.7497306E0,2.0096096E1,2.4128246E0,1.0239315E0,7.3632555E0,1.2732841E1],"tree_param":{"num_deleted":"0","num_feature":"10","num_nodes":"9","size_leaf_vector":"1"}},{"base_weights":[-9.855511E-3,-3.4100732E-1,2.0203015E-1,-7.556772E-1,2.6249766E-1,-3.4997666E-1,4.634438E-1,-2.9910767E-2,-1.5595362E-1,-4.2605337E-2,6.2173337E-2,9.564869E-3,-1.2431186E-1,6.51821E-2,-5.4802395E-2],"categories":[],"categories_nodes":[],"categories_segments":[],"categories_sizes":[],"default_left":[0,0,0,0,0,0,0,0,0,0,0,0,0,0,0],"id":23,"left_children":[1,3,5,7,9,11,13,-1,-1,-1,-1,-1,-1,-1,-1],"loss_changes":[1.9122239E0,2.8567173E0,2.5645802E0,1.9390178E0,1.5185752E0,2.475145E0,2.5918744E0,0E0,0E0,0E0,0E0,0E0,0E0,0E0,0E0],"parents":[2147483647,0,0,1,1,2,2,3,3,4,4,5,5,6,6],"right_children":[2,4,6,8,10,12,14,-1,-1,-1,-1,-1,-1,-1,-1],"split_conditions":[8.031875E1,9.955E-1,6.287E1,7.782E1,7.087E1,6.0975E1,1.05925E2,-2.9910767E-2,-1.5595362E-1,-4.2605337E-2,6.2173337E-2,9.564869E-3,-1.2431186E-1,6.51821E-2,-5.4802395E-2],"split_indices":[5,6,9,5,5,9,7,0,0,0,0,0,0,0,0],"split_type":[0,0,0,0,0,0,0,0,0,0,0,0,0,0,0],"sum_hessian":[2.527087E1,9.622564E0,1.5648305E1,5.5541472E0,4.068417E0,4.920109E0,1.0728196E1,4.417321E0,1.1368263E0,1.3310943E0,2.7373228E0,3.8780816E0,1.0420274E0,9.343599E0,1.3845962E0],"tree_param":{"num_deleted":"0","num_feature":"10","num_nodes":"15","size_leaf_vector":"1"}},{"base_weights":[-1.822224E-2,-6.387209E-1,8.342806E-2,1.706744E-3,-1.09428704E-1,-4.7221792E-1,2.256394E-1,1.8198347E-2,-9.762173E-2,7.0634246E-2,-8.050117E-3],"categories":[],"categories_nodes":[],"categories_segments":[],"categories_sizes":[],"default_left":[0,0,0,0,0,0,0,0,0,0,0],"id":24,"left_children":[1,3,5,-1,-1,7,9,-1,-1,-1,-1],"loss_changes":[1.6896834E0,1.1442189E0,1.9379523E0,0E0,0E0,1.84152E0,2.8721333E0,0E0,0E0,0E0,0E0],"parents":[2147483647,0,0,1,1,2,2,5,5,6,6],"right_children":[2,4,6,-1,-1,8,10,-1,-1,-1,-1],"split_conditions":[7.197375E1,5.5E1,1.375275E2,1.706744E-3,-1.09428704E-1,2.5788317E1,1.56775E2,1.8198347E-2,-9.762173E-2,7.0634246E-2,-8.050117E-3],"split_indices":[5,0,8,0,0,3,8,0,0,0,0],"split_type":[0,0,0,0,0,0,0,0,0,0,0],"sum_hessian":[2.4944118E1,2.7674437E0,2.2176676E1,1.5289919E0,1.2384517E0,4.04634E0,1.8130335E1,2.038825E0,2.0075147E0,6.5454288E0,1.1584907E1],"tree_param":{"num_deleted":"0","num_feature":"10","num_nodes":"11","size_leaf_vector":"1"}},{"base_weights":[-2.074717E-2,-1.2922995E-1,5.6726867E-1,5.1219493E-1,-2.4132106E-1,7.146834E-2,5.598817E-3,6.561961E-2,6.8117767E-3,-6.658655E-2,-4.1760295E-3],"categories":[],"categories_nodes":[],"categories_segments":[],"categories_sizes":[],"default_left":[0,0,0,0,0,0,0,0,0,0,0],"id":25,"left_children":[1,3,5,7,9,-1,-1,-1,-1,-1,-1],"loss_changes":[1.7122958E0,1.7417554E0,2.755947E-1,1.8987584E-1,1.6529148E0,0E0,0E0,0E0,0E0,0E0,0E0],"parents":[2147483647,0,0,1,1,2,2,3,3,4,4],"right_children":[2,4,6,8,10,-1,-1,-1,-1,-1,-1],"split_conditions":[1.04325E0,9.51E-1,1.7455E2,2.6247675E1,2.3165558E1,7.146834E-2,5.598817E-3,6.561961E-2,6.8117767E-3,-6.658655E-2,-4.1760295E-3],"split_indices":[6,6,1,3,3,0,0,0,0,0,0],"split_type":[0,0,0,0,0,0,0,0,0,0,0],"sum_hessian":[2.4693653E1,2.150621E1,3.1874437E0,2.6682262E0,1.8837984E1,2.1653037E0,1.02214E0,1.6541663E0,1.0140599E0,5.276383E0,1.3561601E1],"tree_param":{"num_deleted":"0","num_feature":"10","num_nodes":"11","size_leaf_vector":"1"}},{"base_weights":[-1.501632E-2,-2.2228394E-1,2.8298944E-1,-7.2898567E-1,9.8981805E-2,6.925078E-1,-2.4971698E-1,-9.368056E-2,1.3677368E-2,-4.4055786E-2,5.4952662E-2,-7.8054355E-3,9.047868E-2,4.2087413E-2,-1.1779534E-1],"categories":[],"categories_nodes":[],"categories_segments":[],"categories_sizes":[],"default_left":[0,0,0,0,0,0,0,0,0,0,0,0,0,0,0],"id":26,"left_children":[1,3,5,7,9,11,13,-1,-1,-1,-1,-1,-1,-1,-1],"loss_changes":[1.6498624E0,2.6300745E0,2.5680974E0,1.2466359E0,2.7937248E0,1.1293397E0,3.9236288E0,0E0,0E0,0E0,0E0,0E0,0E0,0E0,0E0],"parents":[2147483647,0,0,1,1,2,2,3,3,4,4,5,5,6,6],"right_children":[2,4,6,8,10,12,14,-1,-1,-1,-1,-1,-1,-1,-1],"split_conditions":[9.955E-1,3.1E1,4.9E1,9.288875E1,1.6405E2,7.51125E1,8.936125E1,-9.368056E-2,1.3677368E-2,-4.4055786E-2,5.4952662E-2,-7.8054355E-3,9.047868E-2,4.2087413E-2,-1.1779534E-1],"split_indices":[6,0,0,5,1,5,5,0,0,0,0,0,0,0,0],"split_type":[0,0,0,0,0,0,0,0,0,0,0,0,0,0,0],"sum_hessian":[2.469268E1,1.4713387E1,9.979294E0,5.2166147E0,9.496772E0,5.4724016E0,4.506892E0,4.1406226E0,1.0759922E0,4.3316593E0,5.165113E0,1.318525E0,4.153877E0,2.9339147E0,1.5729774E0],"tree_param":{"num_deleted":"0","num_feature":"10","num_nodes":"15","size_leaf_vector":"1"}},{"base_weights":[-1.4591776E-2,-3.1722584E-1,1.8466468E-1,-6.6487545E-1,2.2743073E-1,5.6342936E-1,-2.0124978E-1,-2.4967004E-2,-1.390255E-1,-3.9213534E-2,5.7773497E-2,1.1455709E-3,7.986789E-2,-8.694898E-2,2.6091114E-2],"categories":[],"categories_nodes":[],"categories_segments":[],"categories_sizes":[],"default_left":[0,0,0,0,0,0,0,0,0,0,0,0,0,0,0],"id":27,"left_children":[1,3,5,7,9,11,13,-1,-1,-1,-1,-1,-1,-1,-1],"loss_changes":[1.5963831E0,2.1379538E0,2.4534862E0,1.658577E0,1.2755013E0,1.0741622E0,2.9034162E0,0E0,0E0,0E0,0E0,0E0,0E0,0E0,0E0],"parents":[2147483647,0,0,1,1,2,2,3,3,4,4,5,5,6,6],"right_children":[2,4,6,8,10,12,14,-1,-1,-1,-1,-1,-1,-1,-1],"split_conditions":[8.031875E1,9.955E-1,8.843875E1,7.782E1,7.087E1,1.626E2,9.257E1,-2.4967004E-2,-1.390255E-1,-3.9213534E-2,5.7773497E-2,1.1455709E-3,7.986789E-2,-8.694898E-2,2.6091114E-2],"split_indices":[5,6,4,5,5,1,4,0,0,0,0,0,0,0,0],"split_type":[0,0,0,0,0,0,0,0,0,0,0,0,0,0,0],"sum_hessian":[2.4501774E1,9.492443E0,1.5009331E1,5.6593833E0,3.8330598E0,7.3426914E0,7.6666393E0,4.454074E0,1.2053092E0,1.3413194E0,2.4917402E0,2.5076373E0,4.835054E0,2.7741413E0,4.892498E0],"tree_param":{"num_deleted":"0","num_feature":"10","num_nodes":"15","size_leaf_vector":"1"}},{"base_weights":[-1.7174372E-2,-5.855759E-1,7.888158E-2,4.2721475E-3,-1.0374858E-1,1.8640465E-1,-6.023253E-1,-6.2865713E-3,7.042243E-2,-1.3398364E-1,5.4712977E-2],"categories":[],"categories_nodes":[],"categories_segments":[],"categories_sizes":[],"default_left":[0,0,0,0,0,0,0,0,0,0,0],"id":28,"left_children":[1,3,5,-1,-1,7,9,-1,-1,-1,-1],"loss_changes":[1.4264618E0,1.1156995E0,1.7608202E0,0E0,0E0,2.6519537E0,3.5344934E0,0E0,0E0,0E0,0E0],"parents":[2147483647,0,0,1,1,2,2,5,5,6,6],"right_children":[2,4,6,-1,-1,8,10,-1,-1,-1,-1],"split_conditions":[7.197375E1,5.5E1,1.05925E2,4.2721475E-3,-1.0374858E-1,1.003775E2,7.41E1,-6.2865713E-3,7.042243E-2,-1.3398364E-1,5.4712977E-2],"split_indices":[5,0,7,0,0,7,2,0,0,0,0],"split_type":[0,0,0,0,0,0,0,0,0,0,0],"sum_hessian":[2.4280447E1,2.7733324E0,2.1507114E1,1.5390425E0,1.2342898E0,1.9202513E1,2.304602E0,1.3555635E1,5.646877E0,1.3029673E0,1.0016347E0],"tree_param":{"num_deleted":"0","num_feature":"10","num_nodes":"11","size_leaf_vector":"1"}},{"base_weights":[-1.9496486E-2,-1.15696244E-1,5.3216416E-1,5.043403E-1,-2.2181985E-1,6.7891106E-2,5.593381E-3,6.3796066E-2,8.451483E-3,6.3314475E-2,-3.0776588E-2],"categories":[],"categories_nodes":[],"categories_segments":[],"categories_sizes":[],"default_left":[0,0,0,0,0,0,0,0,0,0,0],"id":29,"left_children":[1,3,5,7,9,-1,-1,-1,-1,-1,-1],"loss_changes":[1.3921254E0,1.5706979E0,2.3468125E-1,1.4497763E-1,1.6369133E0,0E0,0E0,0E0,0E0,0E0,0E0],"parents":[2147483647,0,0,1,1,2,2,3,3,4,4],"right_children":[2,4,6,8,10,-1,-1,-1,-1,-1,-1],"split_conditions":[1.04325E0,9.51E-1,8.245E1,2.6247675E1,5.19E1,6.7891106E-2,5.593381E-3,6.3796066E-2,8.451483E-3,6.3314475E-2,-3.0776588E-2],"split_indices":[6,6,2,3,2,0,0,0,0,0,0],"split_type":[0,0,0,0,0,0,0,0,0,0,0],"sum_hessian":[2.4071896E1,2.1170427E1,2.9014676E0,2.5455341E0,1.8624893E1,1.8926635E0,1.0088041E0,1.5368165E0,1.0087175E0,1.1196991E0,1.7505194E1],"tree_param":{"num_deleted":"0","num_feature":"10","num_nodes":"11","size_leaf_vector":"1"}},{"base_weights":[-9.9178115E-3,-8.525103E-2,6.6982985E-2,6.609759E-2,-1.5976483E-1,-7.019472E-2,4.02887E-3],"categories":[],"categories_nodes":[],"categories_segments":[],"categories_sizes":[],"default_left":[0,0,0,0,0,0,0],"id":30,"left_children":[1,3,-1,-1,5,-1,-1],"loss_changes":[1.342377E0,1.411313E0,0E0,0E0,2.4314077E0,0E0,0E0],"parents":[2147483647,0,0,1,1,4,4],"right_children":[2,4,-1,-1,6,-1,-1],"split_conditions":[1.0086375E2,5.22E1,6.6982985E-2,6.609759E-2,2.3165558E1,-7.019472E-2,4.02887E-3],"split_indices":[4,2,0,0,3,0,0],"split_type":[0,0,0,0,0,0,0],"sum_hessian":[2.4099277E1,2.248226E1,1.6170185E0,1.3265779E0,2.1155682E1,5.0258617E0,1.612982E1],"tree_param":{"num_deleted":"0","num_feature":"10","num_nodes":"7","size_leaf_vector":"1"}},{"base_weights":[-5.7675494E-3,-2.0948586E-1,2.3912264E-1,4.90183E-1,-3.9783692E-1,4.244122E-1,-5.7706516E-2,6.2489565E-2,7.925788E-3,-6.794675E-2,2.7772544E-2,6.82135E-2,-2.7454749E-2],"categories":[],"categories_nodes":[],"categories_segments":[],"categories_sizes":[],"default_left":[0,0,0,0,0,0,0,0,0,0,0,0,0],"id":31,"left_children":[1,3,5,7,9,11,-1,-1,-1,-1,-1,-1,-1],"loss_changes":[1.3027703E0,2.0716095E0,2.039947E0,1.4246863E-1,2.4283707E0,2.0336275E0,0E0,0E0,0E0,0E0,0E0,0E0,0E0],"parents":[2147483647,0,0,1,1,2,2,3,3,4,4,5,5],"right_children":[2,4,6,8,10,12,-1,-1,-1,-1,-1,-1,-1],"split_conditions":[9.9125E-1,9.51E-1,1.0402625E2,1.00775E2,1.7535E2,2.7386549E1,-5.7706516E-2,6.2489565E-2,7.925788E-3,-6.794675E-2,2.7772544E-2,6.82135E-2,-2.7454749E-2],"split_indices":[6,6,7,7,1,3,0,0,0,0,0,0,0],"split_type":[0,0,0,0,0,0,0,0,0,0,0,0,0],"sum_hessian":[2.4109488E1,1.324001E1,1.0869477E1,2.4683433E0,1.07716675E1,9.249645E0,1.6198317E0,1.4667858E0,1.0015575E0,7.5982885E0,3.1733787E0,6.7754493E0,2.4741962E0],"tree_param":{"num_deleted":"0","num_feature":"10","num_nodes":"13","size_leaf_vector":"1"}},{"base_weights":[-3.7211347E-3,-2.8375188E-1,1.8176405E-1,-5.9446126E-1,2.2191791E-1,5.4830027E-1,-1.7961016E-1,-2.1348706E-2,-1.24065615E-1,6.926674E-2,-2.1661619E-2,2.5185987E-3,7.783872E-2,-7.599656E-2,2.4681764E-2],"categories":[],"categories_nodes":[],"categories_segments":[],"categories_sizes":[],"default_left":[0,0,0,0,0,0,0,0,0,0,0,0,0,0,0],"id":32,"left_children":[1,3,5,7,9,11,13,-1,-1,-1,-1,-1,-1,-1,-1],"loss_changes":[1.3496534E0,1.7577913E0,2.1704922E0,1.3800256E0,1.1134208E0,9.44823E-1,2.323368E0,0E0,0E0,0E0,0E0,0E0,0E0,0E0,0E0],"parents":[2147483647,0,0,1,1,2,2,3,3,4,4,5,5,6,6],"right_children":[2,4,6,8,10,12,14,-1,-1,-1,-1,-1,-1,-1,-1],"split_conditions":[8.031875E1,9.955E-1,8.843875E1,7.782E1,6.88075E1,1.626E2,9.257E1,-2.1348706E-2,-1.24065615E-1,6.926674E-2,-2.1661619E-2,2.5185987E-3,7.783872E-2,-7.599656E-2,2.4681764E-2],"split_indices":[5,6,4,5,9,1,4,0,0,0,0,0,0,0,0],"split_type":[0,0,0,0,0,0,0,0,0,0,0,0,0,0,0],"sum_hessian":[2.3991117E1,9.348188E0,1.464293E1,5.6815567E0,3.6666312E0,7.0127463E0,7.6301837E0,4.411226E0,1.2703309E0,1.488875E0,2.1777563E0,2.4811618E0,4.5315847E0,2.9005098E0,4.729674E0],"tree_param":{"num_deleted":"0","num_feature":"10","num_nodes":"15","size_leaf_vector":"1"}},{"base_weights":[-5.3017917E-3,-5.276154E-1,8.321864E-2,4.9788146E-3,-9.494709E-2,1.5770374E-1,-7.316399E-2,-2.5752738E-2,3.795886E-2],"categories":[],"categories_nodes":[],"categories_segments":[],"categories_sizes":[],"default_left":[0,0,0,0,0,0,0,0,0],"id":33,"left_children":[1,3,5,-1,-1,7,-1,-1,-1],"loss_changes":[1.1895453E0,9.5511067E-1,1.4537824E0,0E0,0E0,2.0350566E0,0E0,0E0,0E0],"parents":[2147483647,0,0,1,1,2,2,5,5],"right_children":[2,4,6,-1,-1,8,-1,-1,-1],"split_conditions":[7.197375E1,5.5E1,1.093425E2,4.9788146E-3,-9.494709E-2,3.1E1,-7.316399E-2,-2.5752738E-2,3.795886E-2],"split_indices":[5,0,7,0,0,0,0,0,0],"split_type":[0,0,0,0,0,0,0,0,0],"sum_hessian":[2.3778357E1,2.7270505E0,2.1051306E1,1.5236175E0,1.2034329E0,2.0027119E1,1.0241864E0,6.918791E0,1.3108328E1],"tree_param":{"num_deleted":"0","num_feature":"10","num_nodes":"9","size_leaf_vector":"1"}},{"base_weights":[-1.0610226E-2,-8.299426E-2,6.337635E-2,4.7846156E-1,-1.7025335E-1,5.9952464E-2,1.0081301E-2,4.3038055E-2,-2.8362269E-2],"categories":[],"categories_nodes":[],"categories_segments":[],"categories_sizes":[],"default_left":[0,0,0,0,0,0,0,0,0],"id":34,"left_children":[1,3,-1,5,7,-1,-1,-1,-1],"loss_changes":[1.1964151E0,1.2048874E0,0E0,9.25771E-2,1.5236945E0,0E0,0E0,0E0,0E0],"parents":[2147483647,0,0,1,1,3,3,4,4],"right_children":[2,4,-1,6,8,-1,-1,-1,-1],"split_conditions":[1.073E0,9.51E-1,6.337635E-2,1.0069375E2,1.57E2,5.9952464E-2,1.0081301E-2,4.3038055E-2,-2.8362269E-2],"split_indices":[6,6,0,7,1,0,0,0,0],"split_type":[0,0,0,0,0,0,0,0,0],"sum_hessian":[2.3523119E1,2.1930784E1,1.5923356E0,2.3468823E0,1.95839E1,1.3322743E0,1.014608E0,2.6655374E0,1.6918364E1],"tree_param":{"num_deleted":"0","num_feature":"10","num_nodes":"9","size_leaf_vector":"1"}},{"base_weights":[-3.0925581E-3,-7.203671E-2,6.428174E-2,1.5846798E-3,-8.245612E-2,-1.1790015E-2,6.0339507E-2],"categories":[],"categories_nodes":[],"categories_segments":[],"categories_sizes":[],"default_left":[0,0,0,0,0,0,0],"id":35,"left_children":[1,3,-1,5,-1,-1,-1],"loss_changes":[1.1389483E0,1.2793779E0,0E0,1.6539176E0,0E0,0E0,0E0],"parents":[2147483647,0,0,1,1,3,3],"right_children":[2,4,-1,6,-1,-1,-1],"split_conditions":[1.0086375E2,9.915625E1,6.428174E-2,9.288875E1,-8.245612E-2,-1.1790015E-2,6.0339507E-2],"split_indices":[4,5,0,5,0,0,0],"split_type":[0,0,0,0,0,0,0],"sum_hessian":[2.353626E1,2.2069088E1,1.4671724E0,2.1011385E1,1.0577033E0,1.8201674E1,2.8097112E0],"tree_param":{"num_deleted":"0","num_feature":"10","num_nodes":"7","size_leaf_vector":"1"}},{"base_weights":[-1.1693357E-3,5.8952685E-2,-6.910533E-2,7.008125E-2,-3.3136994E-2,-4.405589E-2,1.1560014E-2],"categories":[],"categories_nodes":[],"categories_segments":[],"categories_sizes":[],"default_left":[0,0,0,0,0,0,0],"id":36,"left_children":[1,3,-1,-1,5,-1,-1],"loss_changes":[1.0574402E0,1.4104269E0,0E0,0E0,1.3525242E0,0E0,0E0],"parents":[2147483647,0,0,1,1,4,4],"right_children":[2,4,-1,-1,6,-1,-1],"split_conditions":[1.093425E2,9.51E-1,-6.910533E-2,7.008125E-2,7.383625E1,-4.405589E-2,1.1560014E-2],"split_indices":[7,6,0,0,4,0,0],"split_type":[0,0,0,0,0,0,0],"sum_hessian":[2.3512268E1,2.2468712E1,1.0435567E0,1.9898012E0,2.047891E1,4.9520955E0,1.5526814E1],"tree_param":{"num_deleted":"0","num_feature":"10","num_nodes":"7","size_leaf_vector":"1"}},{"base_weights":[-2.0384681E-3,-1.4067644E-1,3.0249E-1,8.178725E-2,-6.1912465E-1,5.909589E-1,-5.4563086E-2,-2.9039918E-2,8.013164E-2,-8.825224E-2,2.0652195E-2,7.672295E-2,-1.7370146E-2],"categories":[],"categories_nodes":[],"categories_segments":[],"categories_sizes":[],"default_left":[0,0,0,0,0,0,0,0,0,0,0,0,0],"id":37,"left_children":[1,3,5,7,9,11,-1,-1,-1,-1,-1,-1,-1],"loss_changes":[1.0717518E0,1.9062576E0,2.265891E0,3.6562052E0,1.411001E0,9.9692225E-1,0E0,0E0,0E0,0E0,0E0,0E0,0E0],"parents":[2147483647,0,0,1,1,2,2,3,3,4,4,5,5],"right_children":[2,4,6,8,10,12,-1,-1,-1,-1,-1,-1,-1],"split_conditions":[7.71625E1,2.729926E1,9.689E1,2.50189E1,3.1305498E1,1.06465E2,-5.4563086E-2,-2.9039918E-2,8.013164E-2,-8.825224E-2,2.0652195E-2,7.672295E-2,-1.7370146E-2],"split_indices":[9,3,9,3,3,7,0,0,0,0,0,0,0],"split_type":[0,0,0,0,0,0,0,0,0,0,0,0,0],"sum_hessian":[2.3377497E1,1.6433928E1,6.943569E0,1.1783855E1,4.6500726E0,5.407534E0,1.5360351E0,8.1595955E0,3.6242597E0,3.4731743E0,1.1768982E0,4.3917756E0,1.0157585E0],"tree_param":{"num_deleted":"0","num_feature":"10","num_nodes":"13","size_leaf_vector":"1"}},{"base_weights":[-1.2379462E-3,-8.624813E-2,5.0429577E-1,7.505114E-2,-4.3283322E-1,6.427167E-2,7.049829E-3,-2.706939E-2,4.9804192E-2,-1.251461E-1,1.5018269E-2],"categories":[],"categories_nodes":[],"categories_segments":[],"categories_sizes":[],"default_left":[0,0,0,0,0,0,0,0,0,0,0],"id":38,"left_children":[1,3,5,7,9,-1,-1,-1,-1,-1,-1],"loss_changes":[1.0857861E0,1.2408928E0,1.731E-1,2.416717E0,3.5349422E0,0E0,0E0,0E0,0E0,0E0,0E0],"parents":[2147483647,0,0,1,1,2,2,3,3,4,4],"right_children":[2,4,6,8,10,-1,-1,-1,-1,-1,-1],"split_conditions":[1.04325E0,8.843875E1,8.245E1,8.031875E1,9.288875E1,6.427167E-2,7.049829E-3,-2.706939E-2,4.9804192E-2,-1.251461E-1,1.5018269E-2],"split_indices":[6,4,2,5,5,0,0,0,0,0,0],"split_type":[0,0,0,0,0,0,0,0,0,0,0],"sum_hessian":[2.325315E1,2.0615805E1,2.637347E0,1.4603058E1,6.012747E0,1.6342626E0,1.0030843E0,8.23333E0,6.3697276E0,2.0241108E0,3.988636E0],"tree_param":{"num_deleted":"0","num_feature":"10","num_nodes":"11","size_leaf_vector":"1"}},{"base_weights":[-1.1276968E-3,-1.8400592E-1,2.2323368E-1,-8.140612E-1,1.926723E-2,4.0225574E-1,-5.248211E-2,-1.0978165E-2,-1.2359053E-1,-4.6796475E-2,3.268357E-2,6.4273946E-2,-1.9363817E-2],"categories":[],"categories_nodes":[],"categories_segments":[],"categories_sizes":[],"default_left":[0,0,0,0,0,0,0,0,0,0,0,0,0],"id":39,"left_children":[1,3,5,7,9,11,-1,-1,-1,-1,-1,-1,-1],"loss_changes":[1.0282892E0,1.7835764E0,1.7185687E0,8.7155294E-1,1.863341E0,1.5071818E0,0E0,0E0,0E0,0E0,0E0,0E0,0E0],"parents":[2147483647,0,0,1,1,2,2,3,3,4,4,5,5],"right_children":[2,4,6,8,10,12,-1,-1,-1,-1,-1,-1,-1],"split_conditions":[9.9125E-1,9.237375E1,1.0402625E2,9.72375E-1,1.631E2,2.7386549E1,-5.248211E-2,-1.0978165E-2,-1.2359053E-1,-4.6796475E-2,3.268357E-2,6.4273946E-2,-1.9363817E-2],"split_indices":[6,7,7,6,1,3,0,0,0,0,0,0,0],"split_type":[0,0,0,0,0,0,0,0,0,0,0,0,0],"sum_hessian":[2.3060284E1,1.2803746E1,1.0256537E1,2.3902576E0,1.0413488E1,8.648961E0,1.607577E0,1.3674713E0,1.0227864E0,3.8279603E0,6.5855284E0,6.1061144E0,2.5428462E0],"tree_param":{"num_deleted":"0","num_feature":"10","num_nodes":"13","size_leaf_vector":"1"}},{"base_weights":[-6.849143E-3,-8.7545276E-2,4.8565692E-1,1.01395905E-1,-3.514597E-1,6.220307E-2,7.2188796E-3,-2.310802E-2,8.7456465E-2,-5.8687676E-2,4.097713E-2],"categories":[],"categories_nodes":[],"categories_segments":[],"categories_sizes":[],"default_left":[0,0,0,0,0,0,0,0,0,0,0],"id":40,"left_children":[1,3,5,7,9,-1,-1,-1,-1,-1,-1],"loss_changes":[9.9227035E-1,1.1017437E0,1.534068E-1,3.6045415E0,1.8791832E0,0E0,0E0,0E0,0E0,0E0,0E0],"parents":[2147483647,0,0,1,1,2,2,3,3,4,4],"right_children":[2,4,6,8,10,-1,-1,-1,-1,-1,-1],"split_conditions":[1.04325E0,4.5E1,8.295E1,3.7E1,8.235E1,6.220307E-2,7.2188796E-3,-2.310802E-2,8.7456465E-2,-5.8687676E-2,4.097713E-2],"split_indices":[6,0,2,0,2,0,0,0,0,0,0],"split_type":[0,0,0,0,0,0,0,0,0,0,0],"sum_hessian":[2.2897173E1,2.0380169E1,2.5170047E0,1.2235994E1,8.144174E0,1.5134145E0,1.0035901E0,9.046826E0,3.1891682E0,6.3953886E0,1.7487849E0],"tree_param":{"num_deleted":"0","num_feature":"10","num_nodes":"11","size_leaf_vector":"1"}},{"base_weights":[-4.8962235E-4,6.2089086E-2,-6.0498036E-2,-5.083404E-1,1.09421864E-1,2.9574325E-2,-1.01345114E-1,8.399058E-2,-7.146763E-3],"categories":[],"categories_nodes":[],"categories_segments":[],"categories_sizes":[],"default_left":[0,0,0,0,0,0,0,0,0],"id":41,"left_children":[1,-1,3,5,7,-1,-1,-1,-1],"loss_changes":[9.264966E-1,0E0,1.7793308E0,2.9021523E0,2.3385694E0,0E0,0E0,0E0,0E0],"parents":[2147483647,0,0,2,2,3,3,4,4],"right_children":[2,-1,4,6,8,-1,-1,-1,-1],"split_conditions":[5.23E1,6.2089086E-2,2.3165558E1,1.56775E2,6.42E1,2.9574325E-2,-1.01345114E-1,8.399058E-2,-7.146763E-3],"split_indices":[2,0,3,8,2,0,0,0,0],"split_type":[0,0,0,0,0,0,0,0,0],"sum_hessian":[2.2839642E1,1.1882908E0,2.1651352E1,5.4075413E0,1.624381E1,2.2462475E0,3.1612937E0,2.5009706E0,1.374284E1],"tree_param":{"num_deleted":"0","num_feature":"10","num_nodes":"9","size_leaf_vector":"1"}},{"base_weights":[3.0487317E-3,-3.9746958E-1,9.7254E-2,1.5924385E-2,-7.8645684E-2,5.0924695E-1,-1.2798364E-1,7.8445636E-2,-3.779409E-2,-7.061032E-2,1.5894312E-2],"categories":[],"categories_nodes":[],"categories_segments":[],"categories_sizes":[],"default_left":[0,0,0,0,0,0,0,0,0,0,0],"id":42,"left_children":[1,3,5,-1,-1,7,9,-1,-1,-1,-1],"loss_changes":[9.362923E-1,1.1488401E0,1.9270133E0,0E0,0E0,2.0770645E0,2.3965487E0,0E0,0E0,0E0,0E0],"parents":[2147483647,0,0,1,1,2,2,5,5,6,6],"right_children":[2,4,6,-1,-1,8,10,-1,-1,-1,-1],"split_conditions":[1.375275E2,2.5788317E1,1.56775E2,1.5924385E-2,-7.8645684E-2,5.5E1,2.3165558E1,7.8445636E-2,-3.779409E-2,-7.061032E-2,1.5894312E-2],"split_indices":[8,3,8,0,0,0,3,0,0,0,0],"split_type":[0,0,0,0,0,0,0,0,0,0,0],"sum_hessian":[2.279047E1,3.7267642E0,1.9063707E1,1.7758337E0,1.9509306E0,6.2926283E0,1.2771078E1,4.8911633E0,1.4014653E0,3.7514613E0,9.019617E0],"tree_param":{"num_deleted":"0","num_feature":"10","num_nodes":"11","size_leaf_vector":"1"}},{"base_weights":[2.7387234E-4,-6.198465E-2,6.0548466E-2,1.3479568E-2,-8.318361E-2,-1.0110169E-2,5.867034E-2],"categories":[],"categories_nodes":[],"categories_segments":[],"categories_sizes":[],"default_left":[0,0,0,0,0,0,0],"id":43,"left_children":[1,3,-1,5,-1,-1,-1],"loss_changes":[9.2587054E-1,1.3058436E0,0E0,1.4569304E0,0E0,0E0,0E0],"parents":[2147483647,0,0,1,1,3,3],"right_children":[2,4,-1,6,-1,-1,-1],"split_conditions":[1.0086375E2,9.979125E1,6.0548466E-2,9.288875E1,-8.318361E-2,-1.0110169E-2,5.867034E-2],"split_indices":[4,5,0,5,0,0,0],"split_type":[0,0,0,0,0,0,0],"sum_hessian":[2.257619E1,2.1284246E1,1.2919458E0,2.0278908E1,1.005337E0,1.7587069E1,2.6918395E0],"tree_param":{"num_deleted":"0","num_feature":"10","num_nodes":"7","size_leaf_vector":"1"}},{"base_weights":[1.6770515E-3,-1.2815164E-1,2.9506072E-1,7.198962E-2,-5.5038327E-1,5.7369316E-1,-4.88585E-2,-1.8980173E-2,4.509325E-2,-8.202878E-2,2.2200575E-2,-1.3250827E-2,7.505158E-2],"categories":[],"categories_nodes":[],"categories_segments":[],"categories_sizes":[],"default_left":[0,0,0,0,0,0,0,0,0,0,0,0,0],"id":44,"left_children":[1,3,5,7,9,11,-1,-1,-1,-1,-1,-1,-1],"loss_changes":[9.342615E-1,1.477284E0,1.9228747E0,1.3182985E0,1.3467387E0,8.498657E-1,0E0,0E0,0E0,0E0,0E0,0E0,0E0],"parents":[2147483647,0,0,1,1,2,2,3,3,4,4,5,5],"right_children":[2,4,6,8,10,12,-1,-1,-1,-1,-1,-1,-1],"split_conditions":[7.71625E1,7.118375E1,9.689E1,6.292E1,9.0015E1,1.3057625E2,-4.88585E-2,-1.8980173E-2,4.509325E-2,-8.202878E-2,2.2200575E-2,-1.3250827E-2,7.505158E-2],"split_indices":[9,9,9,9,5,8,0,0,0,0,0,0,0],"split_type":[0,0,0,0,0,0,0,0,0,0,0,0,0],"sum_hessian":[2.2535257E1,1.6012548E1,6.5227084E0,1.1426023E1,4.5865264E0,5.0094647E0,1.5132437E0,7.052769E0,4.373253E0,3.3528788E0,1.2336476E0,1.0533136E0,3.9561512E0],"tree_param":{"num_deleted":"0","num_feature":"10","num_nodes":"13","size_leaf_vector":"1"}},{"base_weights":[1.3693683E-3,-8.9929804E-2,4.016556E-1,4.590011E-1,-1.8135616E-1,7.369024E-2,-3.2235693E-2,5.50523E-2,1.3375907E-2,-5.3572744E-2,1.3577809E-4],"categories":[],"categories_nodes":[],"categories_segments":[],"categories_sizes":[],"default_left":[0,0,0,0,0,0,0,0,0,0,0],"id":45,"left_children":[1,3,5,7,9,-1,-1,-1,-1,-1,-1],"loss_changes":[8.9049727E-1,1.0796204E0,1.3358269E0,1.9168198E-2,1.1490849E0,0E0,0E0,0E0,0E0,0E0,0E0],"parents":[2147483647,0,0,1,1,2,2,3,3,4,4],"right_children":[2,4,6,8,10,-1,-1,-1,-1,-1,-1],"split_conditions":[1.02575E0,9.51E-1,5.5E1,2.5402817E1,2.3165558E1,7.369024E-2,-3.2235693E-2,5.50523E-2,1.3375907E-2,-5.3572744E-2,1.3577809E-4],"split_indices":[6,6,0,3,3,0,0,0,0,0,0],"split_type":[0,0,0,0,0,0,0,0,0,0,0],"sum_hessian":[2.2378237E1,1.8853401E1,3.524836E0,2.1177602E0,1.673564E1,2.397086E0,1.1277502E0,1.1121492E0,1.0056108E0,5.036112E0,1.1699529E1],"tree_param":{"num_deleted":"0","num_feature":"10","num_nodes":"11","size_leaf_vector":"1"}},{"base_weights":[4.1272207E-3,-1.5585493E-1,2.2690244E-1,-5.5038446E-1,9.818279E-2,4.8007804E-1,-3.2823917E-1,5.7800505E-3,-9.266195E-2,5.6115437E-2,-2.6948059E-2,-2.8940005E-2,6.907788E-2,5.9260663E-2,-9.269955E-2],"categories":[],"categories_nodes":[],"categories_segments":[],"categories_sizes":[],"default_left":[0,0,0,0,0,0,0,0,0,0,0,0,0,0,0],"id":46,"left_children":[1,3,5,7,9,11,13,-1,-1,-1,-1,-1,-1,-1,-1],"loss_changes":[8.656671E-1,1.4724528E0,1.5833961E0,1.35662E0,1.7610643E0,1.3953414E0,2.628732E0,0E0,0E0,0E0,0E0,0E0,0E0,0E0,0E0],"parents":[2147483647,0,0,1,1,2,2,3,3,4,4,5,5,6,6],"right_children":[2,4,6,8,10,12,14,-1,-1,-1,-1,-1,-1,-1,-1],"split_conditions":[9.9325E-1,3.1E1,8.950875E1,1.696E2,4.5E1,7.087E1,4.8E1,5.7800505E-3,-9.266195E-2,5.6115437E-2,-2.6948059E-2,-2.8940005E-2,6.907788E-2,5.9260663E-2,-9.269955E-2],"split_indices":[6,0,5,1,0,5,0,0,0,0,0,0,0,0,0],"split_type":[0,0,0,0,0,0,0,0,0,0,0,0,0,0,0],"sum_hessian":[2.2296913E1,1.3152247E1,9.144665E0,4.694687E0,8.457561E0,6.373299E0,2.7713654E0,2.1177344E0,2.5769527E0,3.5106206E0,4.94694E0,1.2897235E0,5.0835757E0,1.0960253E0,1.6753402E0],"tree_param":{"num_deleted":"0","num_feature":"10","num_nodes":"15","size_leaf_vector":"1"}},{"base_weights":[2.4448691E-3,-5.7029456E-2,6.0572952E-2,4.4788264E-2,-8.256132E-2,1.4454104E-2,-5.722003E-2],"categories":[],"categories_nodes":[],"categories_segments":[],"categories_sizes":[],"default_left":[0,0,0,0,0,0,0],"id":47,"left_children":[1,3,-1,5,-1,-1,-1],"loss_changes":[8.62429E-1,1.7521112E0,0E0,1.3322098E0,0E0,0E0,0E0],"parents":[2147483647,0,0,1,1,3,3],"right_children":[2,4,-1,6,-1,-1,-1],"split_conditions":[3.1507563E1,3.0374113E1,6.0572952E-2,1.05925E2,-8.256132E-2,1.4454104E-2,-5.722003E-2],"split_indices":[3,3,0,7,0,0,0],"split_type":[0,0,0,0,0,0,0],"sum_hessian":[2.2073742E1,2.0917114E1,1.1566281E0,1.930184E1,1.6152745E0,1.7274658E1,2.0271811E0],"tree_param":{"num_deleted":"0","num_feature":"10","num_nodes":"7","size_leaf_vector":"1"}},{"base_weights":[-3.6769954E-4,-3.5776487E-1,1.035034E-1,-7.100568E-1,1.7701728E-2,-2.9540548E-1,3.483806E-1,-1.2599672E-2,-1.01562284E-1,4.4342827E-2,-5.84697E-2,8.783754E-2,1.0392322E-4],"categories":[],"categories_nodes":[],"categories_segments":[],"categories_sizes":[],"default_left":[0,0,0,0,0,0,0,0,0,0,0,0,0],"id":48,"left_children":[1,3,5,7,-1,9,11,-1,-1,-1,-1,-1,-1],"loss_changes":[8.8943875E-1,1.14211E0,1.9165655E0,4.88109E-1,0E0,1.8843927E0,2.2013927E0,0E0,0E0,0E0,0E0,0E0,0E0],"parents":[2147483647,0,0,1,1,2,2,3,3,5,5,6,6],"right_children":[2,4,6,8,-1,10,12,-1,-1,-1,-1,-1,-1],"split_conditions":[9.237375E1,9.9125E-1,7.5005E1,9.72375E-1,1.7701728E-2,6.405E1,8.47175E1,-1.2599672E-2,-1.01562284E-1,4.4342827E-2,-5.84697E-2,8.783754E-2,1.0392322E-4],"split_indices":[7,6,4,6,0,2,4,0,0,0,0,0,0],"split_type":[0,0,0,0,0,0,0,0,0,0,0,0,0],"sum_hessian":[2.1961596E1,4.3950157E0,1.756658E1,2.4519954E0,1.9430205E0,6.603322E0,1.0963259E1,1.3273096E0,1.1246858E0,1.7081076E0,4.8952146E0,3.735124E0,7.228134E0],"tree_param":{"num_deleted":"0","num_feature":"10","num_nodes":"13","size_leaf_vector":"1"}},{"base_weights":[-6.167034E-4,-1.21665955E-1,2.8155953E-1,5.8710825E-2,-4.8705667E-1,5.438695E-1,-4.1974347E-2,-5.215558E-2,2.1395532E-2,-7.2847836E-2,2.1558214E-2,-1.2945652E-2,7.203116E-2],"categories":[],"categories_nodes":[],"categories_segments":[],"categories_sizes":[],"default_left":[0,0,0,0,0,0,0,0,0,0,0,0,0],"id":49,"left_children":[1,3,5,7,9,11,-1,-1,-1,-1,-1,-1,-1],"loss_changes":[8.1113935E-1,1.1236371E0,1.5398445E0,1.1940246E0,1.106776E0,7.61449E-1,0E0,0E0,0E0,0E0,0E0,0E0,0E0],"parents":[2147483647,0,0,1,1,2,2,3,3,4,4,5,5],"right_children":[2,4,6,8,10,12,-1,-1,-1,-1,-1,-1,-1],"split_conditions":[7.71625E1,7.118375E1,9.689E1,7.119375E1,9.0015E1,1.3057625E2,-4.1974347E-2,-5.215558E-2,2.1395532E-2,-7.2847836E-2,2.1558214E-2,-1.2945652E-2,7.203116E-2],"split_indices":[9,9,9,5,5,8,0,0,0,0,0,0,0],"split_type":[0,0,0,0,0,0,0,0,0,0,0,0,0],"sum_hessian":[2.1744333E1,1.5614698E1,6.1296353E0,1.1015947E1,4.5987515E0,4.6244345E0,1.5052007E0,1.8271023E0,9.188845E0,3.3953562E0,1.2033952E0,1.0154896E0,3.608945E0],"tree_param":{"num_deleted":"0","num_feature":"10","num_nodes":"13","size_leaf_vector":"1"}},{"base_weights":[-2.884606E-3,-3.448241E-1,9.8659E-2,-6.741533E-1,1.6735557E-2,-2.976859E-1,2.964243E-1,-1.2947986E-2,-9.489464E-2,3.4054305E-2,-5.3247508E-2,4.536115E-2,-4.3124754E-2],"categories":[],"categories_nodes":[],"categories_segments":[],"categories_sizes":[],"default_left":[0,0,0,0,0,0,0,0,0,0,0,0,0],"id":50,"left_children":[1,3,5,7,-1,9,11,-1,-1,-1,-1,-1,-1],"loss_changes":[8.1672573E-1,1.02096E0,1.511548E0,3.9735746E-1,0E0,1.1618556E0,1.6385187E0,0E0,0E0,0E0,0E0,0E0,0E0],"parents":[2147483647,0,0,1,1,2,2,3,3,5,5,6,6],"right_children":[2,4,6,8,-1,10,12,-1,-1,-1,-1,-1,-1],"split_conditions":[9.237375E1,9.9125E-1,7.383625E1,9.72375E-1,1.6735557E-2,6.405E1,1.05925E2,-1.2947986E-2,-9.489464E-2,3.4054305E-2,-5.3247508E-2,4.536115E-2,-4.3124754E-2],"split_indices":[7,6,4,6,0,2,7,0,0,0,0,0,0],"split_type":[0,0,0,0,0,0,0,0,0,0,0,0,0],"sum_hessian":[2.154222E1,4.3839192E0,1.71583E1,2.4757679E0,1.9081514E0,5.543409E0,1.1614891E1,1.32354E0,1.1522278E0,1.3697066E0,4.1737022E0,9.861333E0,1.753558E0],"tree_param":{"num_deleted":"0","num_feature":"10","num_nodes":"13","size_leaf_vector":"1"}},{"base_weights":[-6.9829863E-3,5.8209877E-2,-6.352721E-2,-4.7307378E-1,9.865402E-2,2.2059325E-2,-8.514549E-2,7.73336E-2,-5.7788673E-3],"categories":[],"categories_nodes":[],"categories_segments":[],"categories_sizes":[],"default_left":[0,0,0,0,0,0,0,0,0],"id":51,"left_children":[1,-1,3,5,7,-1,-1,-1,-1],"loss_changes":[7.803572E-1,0E0,1.4590778E0,1.8163594E0,1.7397982E0,0E0,0E0,0E0,0E0],"parents":[2147483647,0,0,2,2,3,3,4,4],"right_children":[2,-1,4,6,8,-1,-1,-1,-1],"split_conditions":[5.23E1,5.8209877E-2,2.3165558E1,1.56775E2,6.42E1,2.2059325E-2,-8.514549E-2,7.73336E-2,-5.7788673E-3],"split_indices":[2,0,3,8,2,0,0,0,0],"split_type":[0,0,0,0,0,0,0,0,0],"sum_hessian":[2.131752E1,1.0529752E0,2.0264545E1,5.2046385E0,1.5059907E1,1.9841688E0,3.2204695E0,2.0924888E0,1.2967419E1],"tree_param":{"num_deleted":"0","num_feature":"10","num_nodes":"9","size_leaf_vector":"1"}},{"base_weights":[-2.8339676E-3,-3.843248E-1,8.994703E-2,-7.213657E-2,1.650743E-2,4.7272745E-1,-1.0855094E-1,7.471114E-2,-3.3611964E-2,-5.9395023E-2,1.4782337E-2],"categories":[],"categories_nodes":[],"categories_segments":[],"categories_sizes":[],"default_left":[0,0,0,0,0,0,0,0,0,0,0],"id":52,"left_children":[1,3,5,-1,-1,7,9,-1,-1,-1,-1],"loss_changes":[8.2234216E-1,9.6042967E-1,1.4731421E0,0E0,0E0,1.7107658E0,1.7224915E0,0E0,0E0,0E0,0E0],"parents":[2147483647,0,0,1,1,2,2,5,5,6,6],"right_children":[2,4,6,-1,-1,8,10,-1,-1,-1,-1],"split_conditions":[1.375275E2,9.815875E1,1.56775E2,-7.213657E-2,1.650743E-2,5.5E1,2.3165558E1,7.471114E-2,-3.3611964E-2,-5.9395023E-2,1.4782337E-2],"split_indices":[8,7,8,0,0,0,3,0,0,0,0],"split_type":[0,0,0,0,0,0,0,0,0,0,0],"sum_hessian":[2.1256563E1,3.5436668E0,1.7712896E1,2.0023022E0,1.5413649E0,5.576923E0,1.2135975E1,4.2212725E0,1.3556502E0,3.739384E0,8.39659E0],"tree_param":{"num_deleted":"0","num_feature":"10","num_nodes":"11","size_leaf_vector":"1"}},{"base_weights":[-4.6509495E-3,-2.3035745E-1,1.4801799E-1,1.3928133E-1,-8.47697E-1,6.2872726E-1,-1.1445027E-1,-2.9473636E-2,6.7922905E-2,-2.9716566E-2,-1.1394342E-1,8.813133E-3,8.176135E-2,-6.652887E-2,2.5760913E-2],"categories":[],"categories_nodes":[],"categories_segments":[],"categories_sizes":[],"default_left":[0,0,0,0,0,0,0,0,0,0,0,0,0,0,0],"id":53,"left_children":[1,3,5,7,9,11,13,-1,-1,-1,-1,-1,-1,-1,-1],"loss_changes":[7.9450387E-1,2.2391346E0,1.8096265E0,1.7639433E0,2.4317312E-1,4.4033456E-1,2.170487E0,0E0,0E0,0E0,0E0,0E0,0E0,0E0,0E0],"parents":[2147483647,0,0,1,1,2,2,3,3,4,4,5,5,6,6],"right_children":[2,4,6,8,10,12,14,-1,-1,-1,-1,-1,-1,-1,-1],"split_conditions":[1.6405E2,2.6559046E1,1.6975E2,2.3165558E1,9.162875E1,2.2859785E1,3.1E1,-2.9473636E-2,6.7922905E-2,-2.9716566E-2,-1.1394342E-1,8.813133E-3,8.176135E-2,-6.652887E-2,2.5760913E-2],"split_indices":[1,3,1,3,4,3,0,0,0,0,0,0,0,0,0],"split_type":[0,0,0,0,0,0,0,0,0,0,0,0,0,0,0],"sum_hessian":[2.1067404E1,8.295068E0,1.2772337E1,5.672801E0,2.6222665E0,4.017982E0,8.7543545E0,3.3966577E0,2.276143E0,1.607463E0,1.0148036E0,1.4201294E0,2.5978525E0,3.2115264E0,5.5428286E0],"tree_param":{"num_deleted":"0","num_feature":"10","num_nodes":"15","size_leaf_vector":"1"}},{"base_weights":[-6.0288776E-3,-1.2776941E-1,2.8276005E-1,-2.3053333E-1,4.1368075E-2,5.3259283E-1,-3.6458243E-2,-4.2013332E-2,1.2894276E-2,-9.111482E-3,6.999077E-2],"categories":[],"categories_nodes":[],"categories_segments":[],"categories_sizes":[],"default_left":[0,0,0,0,0,0,0,0,0,0,0],"id":54,"left_children":[1,3,5,7,-1,9,-1,-1,-1,-1,-1],"loss_changes":[8.045468E-1,9.891865E-1,1.2927387E0,1.0181503E0,0E0,6.1764157E-1,0E0,0E0,0E0,0E0,0E0],"parents":[2147483647,0,0,1,1,2,2,3,3,5,5],"right_children":[2,4,6,8,-1,10,-1,-1,-1,-1,-1],"split_conditions":[7.71625E1,1.667025E2,9.689E1,9.955E-1,4.1368075E-2,1.3764874E2,-3.6458243E-2,-4.2013332E-2,1.2894276E-2,-9.111482E-3,6.999077E-2],"split_indices":[9,8,9,6,0,8,0,0,0,0,0],"split_type":[0,0,0,0,0,0,0,0,0,0,0],"sum_hessian":[2.0856579E1,1.5063885E1,5.792694E0,1.3143549E1,1.9203354E0,4.3075266E0,1.4851674E0,8.4945135E0,4.6490355E0,1.0074465E0,3.30008E0],"tree_param":{"num_deleted":"0","num_feature":"10","num_nodes":"11","size_leaf_vector":"1"}},{"base_weights":[-3.281742E-3,5.744139E-2,-5.9404198E-2,-3.314893E-1,1.1996368E-1,1.0045882E-2,-7.275036E-2,-2.9396147E-2,4.1463874E-2],"categories":[],"categories_nodes":[],"categories_segments":[],"categories_sizes":[],"default_left":[0,0,0,0,0,0,0,0,0],"id":55,"left_children":[1,-1,3,5,7,-1,-1,-1,-1],"loss_changes":[7.3904485E-1,0E0,1.051136E0,1.5269678E0,1.7348626E0,0E0,0E0,0E0,0E0],"parents":[2147483647,0,0,2,2,3,3,4,4],"right_children":[2,-1,4,6,8,-1,-1,-1,-1],"split_conditions":[5.23E1,5.744139E-2,1.6405E2,1.00125E2,3.1E1,1.0045882E-2,-7.275036E-2,-2.9396147E-2,4.1463874E-2],"split_indices":[2,0,1,7,0,0,0,0,0],"split_type":[0,0,0,0,0,0,0,0,0],"sum_hessian":[2.0742298E1,1.0189316E0,1.9723368E1,7.4993796E0,1.2223988E1,3.9439197E0,3.55546E0,5.0844154E0,7.139572E0],"tree_param":{"num_deleted":"0","num_feature":"10","num_nodes":"9","size_leaf_vector":"1"}},{"base_weights":[-2.249975E-3,4.6380173E-2,-7.242132E-2,-2.8011814E-1,1.6194868E-1,-4.919288E-2,2.7814036E-2,3.9449017E-2,-3.214303E-2],"categories":[],"categories_nodes":[],"categories_segments":[],"categories_sizes":[],"default_left":[0,0,0,0,0,0,0,0,0],"id":56,"left_children":[1,-1,3,5,7,-1,-1,-1,-1],"loss_changes":[7.3987496E-1,0E0,1.0011755E0,1.4110851E0,1.2350073E0,0E0,0E0,0E0,0E0],"parents":[2147483647,0,0,2,2,3,3,4,4],"right_children":[2,-1,4,6,8,-1,-1,-1,-1],"split_conditions":[9.51E-1,4.6380173E-2,9.9125E-1,1.7535E2,2.7386549E1,-4.919288E-2,2.7814036E-2,3.9449017E-2,-3.214303E-2],"split_indices":[6,0,6,1,3,0,0,0,0],"split_type":[0,0,0,0,0,0,0,0,0],"sum_hessian":[2.0596659E1,1.9612453E0,1.8635414E1,9.776427E0,8.858988E0,7.173516E0,2.6029112E0,6.105618E0,2.7533693E0],"tree_param":{"num_deleted":"0","num_feature":"10","num_nodes":"9","size_leaf_vector":"1"}},{"base_weights":[-1.3832825E-4,-5.5202156E-2,5.59641E-2,9.616426E-2,-4.4063464E-1,-1.1120643E-2,5.409468E-2,-6.94636E-2,3.160937E-2],"categories":[],"categories_nodes":[],"categories_segments":[],"categories_sizes":[],"default_left":[0,0,0,0,0,0,0,0,0],"id":57,"left_children":[1,3,-1,5,7,-1,-1,-1,-1],"loss_changes":[6.9379115E-1,1.2378123E0,0E0,1.4928728E0,1.3645673E0,0E0,0E0,0E0,0E0],"parents":[2147483647,0,0,1,1,3,3,4,4],"right_children":[2,4,-1,6,8,-1,-1,-1,-1],"split_conditions":[3.1507563E1,2.729926E1,5.59641E-2,2.50189E1,7.67175E1,-1.1120643E-2,5.409468E-2,-6.94636E-2,3.160937E-2],"split_indices":[3,3,0,3,9,0,0,0,0],"split_type":[0,0,0,0,0,0,0,0,0],"sum_hessian":[2.0506182E1,1.9490358E1,1.0158228E0,1.4533349E1,4.9570103E0,1.0423556E1,4.1097927E0,3.7727225E0,1.1842878E0],"tree_param":{"num_deleted":"0","num_feature":"10","num_nodes":"9","size_leaf_vector":"1"}},{"base_weights":[3.1208077E-3,-3.169793E-1,1.00895494E-1,1.6180998E-2,-6.0491735E-1,-2.4393257E-1,3.208577E-1,-8.2126185E-2,-1.1271789E-2,3.9094433E-2,-4.8084304E-2,8.315553E-2,9.989827E-4],"categories":[],"categories_nodes":[],"categories_segments":[],"categories_sizes":[],"default_left":[0,0,0,0,0,0,0,0,0,0,0,0,0],"id":58,"left_children":[1,3,5,-1,7,9,11,-1,-1,-1,-1,-1,-1],"loss_changes":[7.029975E-1,8.227511E-1,1.3814955E0,0E0,2.7952993E-1,1.2799084E0,1.7256843E0,0E0,0E0,0E0,0E0,0E0,0E0],"parents":[2147483647,0,0,1,1,2,2,4,4,5,5,6,6],"right_children":[2,4,6,-1,8,10,12,-1,-1,-1,-1,-1,-1],"split_conditions":[9.237375E1,8.93975E1,7.5005E1,1.6180998E-2,8.10575E1,6.405E1,8.47175E1,-8.2126185E-2,-1.1271789E-2,3.9094433E-2,-4.8084304E-2,8.315553E-2,9.989827E-4],"split_indices":[7,7,4,0,4,2,4,0,0,0,0,0,0],"split_type":[0,0,0,0,0,0,0,0,0,0,0,0,0],"sum_hessian":[2.0439787E1,4.257948E0,1.6181839E1,1.7635388E0,2.494409E0,6.2597084E0,9.92213E0,1.268354E0,1.2260551E0,1.5244045E0,4.735304E0,3.1206086E0,6.801521E0],"tree_param":{"num_deleted":"0","num_feature":"10","num_nodes":"13","size_leaf_vector":"1"}},{"base_weights":[3.2929475E-3,-6.713573E-2,4.3361053E-1,4.5362286E-2,-1.5004642E-1,8.895827E-3,5.5427443E-2,-2.4245882E-2,2.6889188E-2],"categories":[],"categories_nodes":[],"categories_segments":[],"categories_sizes":[],"default_left":[0,0,0,0,0,0,0,0,0],"id":59,"left_children":[1,3,5,-1,7,-1,-1,-1,-1],"loss_changes":[6.731324E-1,8.939132E-1,8.056289E-2,0E0,7.330966E-1,0E0,0E0,0E0,0E0],"parents":[2147483647,0,0,1,1,2,2,4,4],"right_children":[2,4,6,-1,8,-1,-1,-1,-1],"split_conditions":[1.04325E0,9.51E-1,9.795625E1,4.5362286E-2,8.235E1,8.895827E-3,5.5427443E-2,-2.4245882E-2,2.6889188E-2],"split_indices":[6,6,7,0,2,0,0,0,0],"split_type":[0,0,0,0,0,0,0,0,0],"sum_hessian":[2.0250141E1,1.8127293E1,2.1228492E0,1.875587E0,1.6251705E1,1.0009828E0,1.1218666E0,1.3659786E1,2.5919187E0],"tree_param":{"num_deleted":"0","num_feature":"10","num_nodes":"9","size_leaf_vector":"1"}},{"base_weights":[8.502888E-3,-4.6308268E-2,5.444885E-2,2.6437428E-2,-7.186585E-2,-9.533995E-3,5.8515426E-2],"categories":[],"categories_nodes":[],"categories_segments":[],"categories_sizes":[],"default_left":[0,0,0,0,0,0,0],"id":60,"left_children":[1,3,-1,5,-1,-1,-1],"loss_changes":[6.485214E-1,1.0055276E0,0E0,1.3597776E0,0E0,0E0,0E0],"parents":[2147483647,0,0,1,1,3,3],"right_children":[2,4,-1,6,-1,-1,-1],"split_conditions":[1.0086375E2,9.71975E1,5.444885E-2,9.288875E1,-7.186585E-2,-9.533995E-3,5.8515426E-2],"split_indices":[4,4,0,5,0,0,0],"split_type":[0,0,0,0,0,0,0],"sum_hessian":[2.0216808E1,1.9170036E1,1.0467715E0,1.81653E1,1.0047363E0,1.5595483E1,2.5698173E0],"tree_param":{"num_deleted":"0","num_feature":"10","num_nodes":"7","size_leaf_vector":"1"}},{"base_weights":[9.438999E-3,-5.7363316E-2,4.2196542E-1,4.3274533E-2,-1.3345939E-1,9.286354E-3,5.382179E-2,3.5046868E-3,-3.928206E-2],"categories":[],"categories_nodes":[],"categories_segments":[],"categories_sizes":[],"default_left":[0,0,0,0,0,0,0,0,0],"id":61,"left_children":[1,3,5,-1,7,-1,-1,-1,-1],"loss_changes":[6.0716337E-1,7.695813E-1,6.7391455E-2,0E0,7.6920784E-1,0E0,0E0,0E0,0E0],"parents":[2147483647,0,0,1,1,2,2,4,4],"right_children":[2,4,6,-1,8,-1,-1,-1,-1],"split_conditions":[1.04325E0,9.51E-1,9.83225E1,4.3274533E-2,4.8E1,9.286354E-3,5.382179E-2,3.5046868E-3,-3.928206E-2],"split_indices":[6,6,7,0,0,0,0,0,0],"split_type":[0,0,0,0,0,0,0,0,0],"sum_hessian":[2.015407E1,1.808623E1,2.0678406E0,1.800836E0,1.6285395E1,1.0093257E0,1.058515E0,1.03960085E1,5.889385E0],"tree_param":{"num_deleted":"0","num_feature":"10","num_nodes":"9","size_leaf_vector":"1"}},{"base_weights":[1.2069398E-2,6.353706E-2,-5.0940383E-2,6.256888E-2,-1.425246E-2,-3.630153E-2,1.05074635E-2],"categories":[],"categories_nodes":[],"categories_segments":[],"categories_sizes":[],"default_left":[0,0,0,0,0,0,0],"id":62,"left_children":[1,3,-1,-1,5,-1,-1],"loss_changes":[5.9914905E-1,8.8831615E-1,0E0,0E0,8.1401384E-1,0E0,0E0],"parents":[2147483647,0,0,1,1,4,4],"right_children":[2,4,-1,-1,6,-1,-1],"split_conditions":[1.08695E2,9.51E-1,-5.0940383E-2,6.256888E-2,9.237375E1,-3.630153E-2,1.05074635E-2],"split_indices":[7,6,0,0,7,0,0],"split_type":[0,0,0,0,0,0,0],"sum_hessian":[2.0117884E1,1.9109955E1,1.00793E0,1.4667828E0,1.7643171E1,3.977057E0,1.3666115E1],"tree_param":{"num_deleted":"0","num_feature":"10","num_nodes":"7","size_leaf_vector":"1"}},{"base_weights":[1.0432279E-2,-4.1641664E-2,5.1923838E-2,3.9834607E-2,-1.0318487E-1,3.519114E-2,-1.8590398E-2],"categories":[],"categories_nodes":[],"categories_segments":[],"categories_sizes":[],"default_left":[0,0,0,0,0,0,0],"id":63,"left_children":[1,3,-1,-1,5,-1,-1],"loss_changes":[5.791019E-1,5.830152E-1,0E0,0E0,7.5625867E-1,0E0,0E0],"parents":[2147483647,0,0,1,1,4,4],"right_children":[2,4,-1,-1,6,-1,-1],"split_conditions":[1.073E0,9.51E-1,5.1923838E-2,3.9834607E-2,1.57E2,3.519114E-2,-1.8590398E-2],"split_indices":[6,6,0,0,1,0,0],"split_type":[0,0,0,0,0,0,0],"sum_hessian":[2.0040524E1,1.901281E1,1.0277148E0,1.6615254E0,1.7351284E1,2.168198E0,1.5183085E1],"tree_param":{"num_deleted":"0","num_feature":"10","num_nodes":"7","size_leaf_vector":"1"}},{"base_weights":[1.4759313E-2,-3.625931E-1,8.2689635E-2,8.974302E-3,-7.014109E-2,6.594715E-2,-5.266633E-4,-3.4060903E-2,1.4411092E-2],"categories":[],"categories_nodes":[],"categories_segments":[],"categories_sizes":[],"default_left":[0,0,0,0,0,0,0,0,0],"id":64,"left_children":[1,3,5,-1,-1,-1,7,-1,-1],"loss_changes":[5.684893E-1,5.825813E-1,8.939307E-1,0E0,0E0,0E0,8.9852834E-1,0E0,0E0],"parents":[2147483647,0,0,1,1,2,2,6,6],"right_children":[2,4,6,-1,-1,-1,8,-1,-1],"split_conditions":[7.197375E1,5.5E1,7.4365E1,8.974302E-3,-7.014109E-2,6.594715E-2,8.031875E1,-3.4060903E-2,1.4411092E-2],"split_indices":[5,0,5,0,0,0,5,0,0],"split_type":[0,0,0,0,0,0,0,0,0],"sum_hessian":[2.0007784E1,2.3905535E0,1.761723E1,1.3385977E0,1.0519559E0,1.3481634E0,1.6269066E1,4.4502954E0,1.181877E1],"tree_param":{"num_deleted":"0","num_feature":"10","num_nodes":"9","size_leaf_vector":"1"}},{"base_weights":[1.2809105E-2,-3.1477427E-1,9.286477E-2,-6.0955077E-2,1.73137E-2,4.62422E-1,-9.603484E-2,7.3192164E-2,-3.1189924E-2,-5.06562E-2,1.34697845E-2],"categories":[],"categories_nodes":[],"categories_segments":[],"categories_sizes":[],"default_left":[0,0,0,0,0,0,0,0,0,0,0],"id":65,"left_children":[1,3,5,-1,-1,7,9,-1,-1,-1,-1],"loss_changes":[5.764647E-1,7.276987E-1,1.2689387E0,0E0,0E0,1.5023329E0,1.2461774E0,0E0,0E0,0E0,0E0],"parents":[2147483647,0,0,1,1,2,2,5,5,6,6],"right_children":[2,4,6,-1,-1,8,10,-1,-1,-1,-1],"split_conditions":[1.375275E2,9.815875E1,1.56775E2,-6.0955077E-2,1.73137E-2,5.5E1,2.3165558E1,7.3192164E-2,-3.1189924E-2,-5.06562E-2,1.34697845E-2],"split_indices":[8,7,8,0,0,0,3,0,0,0,0],"split_type":[0,0,0,0,0,0,0,0,0,0,0],"sum_hessian":[1.9866932E1,3.3258388E0,1.6541092E1,1.9178462E0,1.4079927E0,5.105289E0,1.1435804E1,3.827796E0,1.2774928E0,3.6845973E0,7.751207E0],"tree_param":{"num_deleted":"0","num_feature":"10","num_nodes":"11","size_leaf_vector":"1"}},{"base_weights":[1.0245813E-2,6.0481135E-2,-4.870213E-2,5.9666213E-2,-1.0646892E-2,-3.0634556E-2,1.0652009E-2],"categories":[],"categories_nodes":[],"categories_segments":[],"categories_sizes":[],"default_left":[0,0,0,0,0,0,0],"id":66,"left_children":[1,3,-1,-1,5,-1,-1],"loss_changes":[5.4595333E-1,7.5646245E-1,0E0,0E0,6.683E-1,0E0,0E0],"parents":[2147483647,0,0,1,1,4,4],"right_children":[2,4,-1,-1,6,-1,-1],"split_conditions":[1.08695E2,9.51E-1,-4.870213E-2,5.9666213E-2,7.383625E1,-3.0634556E-2,1.0652009E-2],"split_indices":[7,6,0,0,4,0,0],"split_type":[0,0,0,0,0,0,0],"sum_hessian":[1.9676144E1,1.8668566E1,1.0075781E0,1.3211135E0,1.7347452E1,4.4648185E0,1.2882633E1],"tree_param":{"num_deleted":"0","num_feature":"10","num_nodes":"7","size_leaf_vector":"1"}},{"base_weights":[8.983291E-3,-1.8159914E-1,1.4212531E-1,1.4983E-1,-7.1762407E-1,6.148747E-1,-1.1290583E-1,-2.2693409E-2,6.446913E-2,-2.222067E-2,-9.7638085E-2,9.368943E-3,7.905624E-2,-7.937722E-2,1.4857537E-2],"categories":[],"categories_nodes":[],"categories_segments":[],"categories_sizes":[],"default_left":[0,0,0,0,0,0,0,0,0,0,0,0,0,0,0],"id":67,"left_children":[1,3,5,7,9,11,13,-1,-1,-1,-1,-1,-1,-1,-1],"loss_changes":[5.477935E-1,1.6885703E0,1.5971832E0,1.3258686E0,2.4107325E-1,3.4672844E-1,1.7337749E0,0E0,0E0,0E0,0E0,0E0,0E0,0E0,0E0],"parents":[2147483647,0,0,1,1,2,2,3,3,4,4,5,5,6,6],"right_children":[2,4,6,8,10,12,14,-1,-1,-1,-1,-1,-1,-1,-1],"split_conditions":[1.6405E2,2.6559046E1,1.6975E2,2.3165558E1,9.162875E1,2.2859785E1,1.7235E2,-2.2693409E-2,6.446913E-2,-2.222067E-2,-9.7638085E-2,9.368943E-3,7.905624E-2,-7.937722E-2,1.4857537E-2],"split_indices":[1,3,1,3,4,3,1,0,0,0,0,0,0,0,0],"split_type":[0,0,0,0,0,0,0,0,0,0,0,0,0,0,0],"sum_hessian":[1.9571169E1,7.8995814E0,1.1671587E1,5.326585E0,2.572997E0,3.5955544E0,8.076033E0,3.331532E0,1.9950526E0,1.5205293E0,1.0524677E0,1.2930217E0,2.302533E0,1.6760691E0,6.3999634E0],"tree_param":{"num_deleted":"0","num_feature":"10","num_nodes":"15","size_leaf_vector":"1"}},{"base_weights":[6.071253E-3,-7.007E-2,3.4128264E-1,-4.2329243E-1,2.9926658E-2,6.7633994E-2,-2.760385E-2,8.251259E-3,-7.2210476E-2,4.79378E-2,-1.7340593E-2],"categories":[],"categories_nodes":[],"categories_segments":[],"categories_sizes":[],"default_left":[0,0,0,0,0,0,0,0,0,0,0],"id":68,"left_children":[1,3,5,7,9,-1,-1,-1,-1,-1,-1],"loss_changes":[5.4437906E-1,6.289089E-1,1.0026373E0,6.5136564E-1,1.4111246E0,0E0,0E0,0E0,0E0,0E0,0E0],"parents":[2147483647,0,0,1,1,2,2,3,3,4,4],"right_children":[2,4,6,8,10,-1,-1,-1,-1,-1,-1],"split_conditions":[1.02575E0,1.375275E2,5.5E1,7.125E1,1.56775E2,6.7633994E-2,-2.760385E-2,8.251259E-3,-7.2210476E-2,4.79378E-2,-1.7340593E-2],"split_indices":[6,8,0,2,8,0,0,0,0,0,0],"split_type":[0,0,0,0,0,0,0,0,0,0,0],"sum_hessian":[1.9391682E1,1.6446848E1,2.944835E0,2.915442E0,1.3531405E1,1.8468394E0,1.0979954E0,1.3515364E0,1.5639056E0,3.7919595E0,9.739446E0],"tree_param":{"num_deleted":"0","num_feature":"10","num_nodes":"11","size_leaf_vector":"1"}},{"base_weights":[6.1808606E-3,-2.7317852E-1,9.529189E-2,1.6835067E-2,-5.4286194E-1,-2.5933266E-1,2.8190938E-1,-7.1431376E-2,-1.1171522E-2,1.474634E-2,-5.564207E-2,4.297206E-2,-3.655329E-2],"categories":[],"categories_nodes":[],"categories_segments":[],"categories_sizes":[],"default_left":[0,0,0,0,0,0,0,0,0,0,0,0,0],"id":69,"left_children":[1,3,5,-1,7,9,11,-1,-1,-1,-1,-1,-1],"loss_changes":[5.295042E-1,7.0458806E-1,1.1369313E0,0E0,1.7402506E-1,8.1483907E-1,1.2108691E0,0E0,0E0,0E0,0E0,0E0,0E0],"parents":[2147483647,0,0,1,1,2,2,4,4,5,5,6,6],"right_children":[2,4,6,-1,8,10,12,-1,-1,-1,-1,-1,-1],"split_conditions":[9.237375E1,8.93975E1,7.383625E1,1.6835067E-2,8.10575E1,7.145E1,1.05925E2,-7.1431376E-2,-1.1171522E-2,1.474634E-2,-5.564207E-2,4.297206E-2,-3.655329E-2],"split_indices":[7,7,4,0,4,4,7,0,0,0,0,0,0],"split_type":[0,0,0,0,0,0,0,0,0,0,0,0,0],"sum_hessian":[1.922465E1,4.1497517E0,1.5074898E1,1.7160156E0,2.433736E0,5.063399E0,1.0011498E1,1.2713777E0,1.1623584E0,2.3496764E0,2.7137227E0,8.42447E0,1.5870289E0],"tree_param":{"num_deleted":"0","num_feature":"10","num_nodes":"13","size_leaf_vector":"1"}},{"base_weights":[9.592784E-4,-6.0591478E-2,3.9139863E-2,-2.6777658E-1,9.7701564E-2,1.4874659E-2,-6.7560785E-2,-2.8536597E-2,4.202484E-2],"categories":[],"categories_nodes":[],"categories_segments":[],"categories_sizes":[],"default_left":[0,0,0,0,0,0,0,0,0],"id":70,"left_children":[1,3,-1,5,7,-1,-1,-1,-1],"loss_changes":[5.0551206E-1,6.225272E-1,0E0,1.4837685E0,1.484122E0,0E0,0E0,0E0,0E0],"parents":[2147483647,0,0,1,1,3,3,4,4],"right_children":[2,4,-1,6,8,-1,-1,-1,-1],"split_conditions":[1.04325E0,1.6405E2,3.9139863E-2,1.00125E2,3.1E1,1.4874659E-2,-6.7560785E-2,-2.8536597E-2,4.202484E-2],"split_indices":[6,1,0,7,0,0,0,0,0],"split_type":[0,0,0,0,0,0,0,0,0],"sum_hessian":[1.904827E1,1.7184097E1,1.8641726E0,7.143079E0,1.0041018E1,3.848169E0,3.2949097E0,4.6425915E0,5.398426E0],"tree_param":{"num_deleted":"0","num_feature":"10","num_nodes":"9","size_leaf_vector":"1"}},{"base_weights":[1.1718149E-3,1.3916999E-1,-1.8545641E-1,-1.0063967E-1,6.477174E-1,-4.9640763E-1,1.2826154E-1,-3.3450138E-2,3.964676E-2,7.369296E-2,1.9192599E-2,2.3652747E-2,-8.295448E-2,4.3527372E-2,-2.0686135E-2],"categories":[],"categories_nodes":[],"categories_segments":[],"categories_sizes":[],"default_left":[0,0,0,0,0,0,0,0,0,0,0,0,0,0,0],"id":71,"left_children":[1,3,5,7,9,11,13,-1,-1,-1,-1,-1,-1,-1,-1],"loss_changes":[5.3801364E-1,1.5292459E0,9.302235E-1,1.1816415E0,2.0458221E-2,1.3356296E0,6.2675464E-1,0E0,0E0,0E0,0E0,0E0,0E0,0E0,0E0],"parents":[2147483647,0,0,1,1,2,2,3,3,4,4,5,5,6,6],"right_children":[2,4,6,8,10,12,14,-1,-1,-1,-1,-1,-1,-1,-1],"split_conditions":[4.7E1,3.7E1,6.815E1,9.955E-1,8.736E1,1.565775E2,9.97625E-1,-3.3450138E-2,3.964676E-2,7.369296E-2,1.9192599E-2,2.3652747E-2,-8.295448E-2,4.3527372E-2,-2.0686135E-2],"split_indices":[0,0,2,6,5,8,6,0,0,0,0,0,0,0,0],"split_type":[0,0,0,0,0,0,0,0,0,0,0,0,0,0,0],"sum_hessian":[1.8888042E1,1.1004958E1,7.8830833E0,8.023511E0,2.9814477E0,3.6665409E0,4.2165427E0,5.678971E0,2.34454E0,1.9775652E0,1.0038825E0,1.2363802E0,2.4301608E0,2.0445995E0,2.171943E0],"tree_param":{"num_deleted":"0","num_feature":"10","num_nodes":"15","size_leaf_vector":"1"}},{"base_weights":[4.7148885E-3,1.4615507E-1,-1.6304787E-1,-8.986914E-2,7.5874686E-2,-3.094371E-1,2.8553674E-2,-4.2114235E-2,2.1964008E-2,1.767313E-2,-4.1851986E-2],"categories":[],"categories_nodes":[],"categories_segments":[],"categories_sizes":[],"default_left":[0,0,0,0,0,0,0,0,0,0,0],"id":72,"left_children":[1,3,5,7,-1,9,-1,-1,-1,-1,-1],"loss_changes":[4.9220234E-1,1.6928991E0,7.123284E-1,1.0158765E0,0E0,4.793449E-1,0E0,0E0,0E0,0E0,0E0],"parents":[2147483647,0,0,1,1,2,2,3,3,5,5],"right_children":[2,4,6,8,-1,10,-1,-1,-1,-1,-1],"split_conditions":[4.5E1,3.7E1,7.67175E1,8.031875E1,7.5874686E-2,2.2899363E1,2.8553674E-2,-4.2114235E-2,2.1964008E-2,1.767313E-2,-4.1851986E-2],"split_indices":[0,0,9,5,0,3,0,0,0,0,0],"split_type":[0,0,0,0,0,0,0,0,0,0,0],"sum_hessian":[1.8738886E1,1.023695E1,8.501937E0,8.0057335E0,2.2312157E0,6.6439657E0,1.8579717E0,3.6926968E0,4.313037E0,1.103893E0,5.5400724E0],"tree_param":{"num_deleted":"0","num_feature":"10","num_nodes":"11","size_leaf_vector":"1"}},{"base_weights":[7.7660233E-3,-2.9756758E-1,8.296054E-2,-5.7120062E-2,1.7466133E-2,4.0262645E-1,-7.2034955E-2,6.87449E-2,-3.1743035E-2,-6.3207455E-2,6.0999533E-3],"categories":[],"categories_nodes":[],"categories_segments":[],"categories_sizes":[],"default_left":[0,0,0,0,0,0,0,0,0,0,0],"id":73,"left_children":[1,3,5,-1,-1,7,9,-1,-1,-1,-1],"loss_changes":[4.75047E-1,6.288023E-1,8.4758335E-1,0E0,0E0,1.3557668E0,9.307286E-1,0E0,0E0,0E0,0E0],"parents":[2147483647,0,0,1,1,2,2,5,5,6,6],"right_children":[2,4,6,-1,-1,8,10,-1,-1,-1,-1],"split_conditions":[1.375275E2,9.815875E1,1.56775E2,-5.7120062E-2,1.7466133E-2,5.5E1,1.5807875E2,6.87449E-2,-3.1743035E-2,-6.3207455E-2,6.0999533E-3],"split_indices":[8,7,8,0,0,0,8,0,0,0,0],"split_type":[0,0,0,0,0,0,0,0,0,0,0],"sum_hessian":[1.8615515E1,3.094151E0,1.5521363E1,1.826311E0,1.26784E0,4.5466313E0,1.0974731E1,3.2903857E0,1.2562455E0,1.3865441E0,9.588187E0],"tree_param":{"num_deleted":"0","num_feature":"10","num_nodes":"11","size_leaf_vector":"1"}},{"base_weights":[4.309393E-3,-3.4256515E-1,6.9760166E-2,7.518582E-3,-6.294491E-2,-2.6805562E-1,1.9246088E-1,-4.968169E-2,2.3976116E-2,-4.2656988E-2,2.9123053E-2],"categories":[],"categories_nodes":[],"categories_segments":[],"categories_sizes":[],"default_left":[0,0,0,0,0,0,0,0,0,0,0],"id":74,"left_children":[1,3,5,-1,-1,7,9,-1,-1,-1,-1],"loss_changes":[4.6498406E-1,4.3720487E-1,7.635071E-1,0E0,0E0,6.992778E-1,9.30142E-1,0E0,0E0,0E0,0E0],"parents":[2147483647,0,0,1,1,2,2,5,5,6,6],"right_children":[2,4,6,-1,-1,8,10,-1,-1,-1,-1],"split_conditions":[7.197375E1,5.5E1,9.237375E1,7.518582E-3,-6.294491E-2,1.6129375E2,2.2E1,-4.968169E-2,2.3976116E-2,-4.2656988E-2,2.9123053E-2],"split_indices":[5,0,7,0,0,8,0,0,0,0,0],"split_type":[0,0,0,0,0,0,0,0,0,0,0],"sum_hessian":[1.8428385E1,2.253167E0,1.6175219E1,1.2177875E0,1.0353793E0,3.994115E0,1.2181103E1,2.7685843E0,1.2255307E0,1.219452E0,1.0961651E1],"tree_param":{"num_deleted":"0","num_feature":"10","num_nodes":"11","size_leaf_vector":"1"}},{"base_weights":[-8.26292E-4,-6.1655212E-2,3.8178757E-2,7.227273E-2,-3.122717E-1,-1.703505E-2,4.005232E-2,-8.989956E-2,1.5424453E-2],"categories":[],"categories_nodes":[],"categories_segments":[],"categories_sizes":[],"default_left":[0,0,0,0,0,0,0,0,0],"id":75,"left_children":[1,3,-1,5,7,-1,-1,-1,-1],"loss_changes":[4.717137E-1,6.091404E-1,0E0,1.0399731E0,1.8560715E0,0E0,0E0,0E0,0E0],"parents":[2147483647,0,0,1,1,3,3,4,4],"right_children":[2,4,-1,6,8,-1,-1,-1,-1],"split_conditions":[1.04325E0,8.843875E1,3.8178757E-2,8.031875E1,9.288875E1,-1.703505E-2,4.005232E-2,-8.989956E-2,1.5424453E-2],"split_indices":[6,4,0,5,5,0,0,0,0],"split_type":[0,0,0,0,0,0,0,0,0],"sum_hessian":[1.8256453E1,1.6475925E1,1.7805265E0,1.1201521E1,5.274405E0,6.7174306E0,4.4840903E0,1.9255972E0,3.3488078E0],"tree_param":{"num_deleted":"0","num_feature":"10","num_nodes":"9","size_leaf_vector":"1"}},{"base_weights":[-1.2158001E-3,3.9012533E-2,-5.577935E-2,-2.4423683E-1,1.6003992E-1,-4.214366E-2,2.4396501E-2,3.2437097E-2,-4.444886E-2],"categories":[],"categories_nodes":[],"categories_segments":[],"categories_sizes":[],"default_left":[0,0,0,0,0,0,0,0,0],"id":76,"left_children":[1,-1,3,5,7,-1,-1,-1,-1],"loss_changes":[4.295864E-1,0E0,7.564353E-1,9.515789E-1,1.0209605E0,0E0,0E0,0E0,0E0],"parents":[2147483647,0,0,2,2,3,3,4,4],"right_children":[2,-1,4,6,8,-1,-1,-1,-1],"split_conditions":[9.51E-1,3.9012533E-2,9.9125E-1,1.7535E2,1.0402625E2,-4.214366E-2,2.4396501E-2,3.2437097E-2,-4.444886E-2],"split_indices":[6,0,6,1,7,0,0,0,0],"split_type":[0,0,0,0,0,0,0,0,0],"sum_hessian":[1.8099247E1,1.4621903E0,1.6637056E1,8.811241E0,7.8258157E0,6.565102E0,2.2461393E0,6.5175576E0,1.3082582E0],"tree_param":{"num_deleted":"0","num_feature":"10","num_nodes":"9","size_leaf_vector":"1"}},{"base_weights":[-3.635173E-4,-3.3041856E-1,6.2300622E-2,3.985835E-3,-5.485006E-2,6.0562115E-2,-1.6908614E-2,-8.860163E-3,5.130274E-2],"categories":[],"categories_nodes":[],"categories_segments":[],"categories_sizes":[],"default_left":[0,0,0,0,0,0,0,0,0],"id":77,"left_children":[1,3,5,-1,-1,-1,7,-1,-1],"loss_changes":[4.1323498E-1,2.7928767E-1,7.330999E-1,0E0,0E0,0E0,6.3936865E-1,0E0,0E0],"parents":[2147483647,0,0,1,1,2,2,6,6],"right_children":[2,4,6,-1,-1,-1,8,-1,-1],"split_conditions":[7.197375E1,9.99425E1,7.4365E1,3.985835E-3,-5.485006E-2,6.0562115E-2,1.04325E0,-8.860163E-3,5.130274E-2],"split_indices":[5,7,5,0,0,0,6,0,0],"split_type":[0,0,0,0,0,0,0,0,0],"sum_hessian":[1.7984528E1,2.1879008E0,1.5796628E1,1.1138874E0,1.0740134E0,1.1643249E0,1.4632303E1,1.3622212E1,1.0100902E0],"tree_param":{"num_deleted":"0","num_feature":"10","num_nodes":"9","size_leaf_vector":"1"}},{"base_weights":[2.5738569E-3,1.3663955E-1,-1.53611E-1,-8.4511474E-2,7.2889864E-2,-4.0243456E-1,8.78897E-2,-2.9065117E-2,3.6666308E-2,2.5038218E-2,-7.050523E-2,-2.4908222E-2,4.0923566E-2],"categories":[],"categories_nodes":[],"categories_segments":[],"categories_sizes":[],"default_left":[0,0,0,0,0,0,0,0,0,0,0,0,0],"id":78,"left_children":[1,3,5,7,-1,9,11,-1,-1,-1,-1,-1,-1],"loss_changes":[4.1706976E-1,1.4641128E0,5.8868504E-1,9.150406E-1,0E0,1.1078932E0,6.967927E-1,0E0,0E0,0E0,0E0,0E0,0E0],"parents":[2147483647,0,0,1,1,2,2,3,3,5,5,6,6],"right_children":[2,4,6,8,-1,10,12,-1,-1,-1,-1,-1,-1],"split_conditions":[4.5E1,3.7E1,6.815E1,9.955E-1,7.2889864E-2,1.565775E2,7.132875E1,-2.9065117E-2,3.6666308E-2,2.5038218E-2,-7.050523E-2,-2.4908222E-2,4.0923566E-2],"split_indices":[0,0,2,6,0,8,9,0,0,0,0,0,0],"split_type":[0,0,0,0,0,0,0,0,0,0,0,0,0],"sum_hessian":[1.7915888E1,9.707942E0,8.207945E0,7.692755E0,2.0151873E0,3.7144616E0,4.493483E0,5.5244484E0,2.1683066E0,1.2311652E0,2.4832964E0,2.3031828E0,2.1903005E0],"tree_param":{"num_deleted":"0","num_feature":"10","num_nodes":"13","size_leaf_vector":"1"}},{"base_weights":[5.520252E-3,1.02627404E-1,-2.0581174E-1,3.2701486E-1,-2.6626226E-1,-6.213856E-1,1.7879543E-1,-9.860333E-3,7.532886E-2,-8.709309E-2,1.3887416E-2,-1.1262663E-2,-8.585098E-2,-2.3689708E-2,6.0795296E-2],"categories":[],"categories_nodes":[],"categories_segments":[],"categories_sizes":[],"default_left":[0,0,0,0,0,0,0,0,0,0,0,0,0,0,0],"id":79,"left_children":[1,3,5,7,9,11,13,-1,-1,-1,-1,-1,-1,-1,-1],"loss_changes":[4.0605405E-1,1.2061007E0,1.1081582E0,1.6807865E0,1.508561E0,2.9198432E-1,8.605256E-1,0E0,0E0,0E0,0E0,0E0,0E0,0E0,0E0],"parents":[2147483647,0,0,1,1,2,2,3,3,4,4,5,5,6,6],"right_children":[2,4,6,8,10,12,14,-1,-1,-1,-1,-1,-1,-1,-1],"split_conditions":[2.729926E1,1.6975E2,1.6405E2,2.3165558E1,1.7235E2,9.02525E1,9.815875E1,-9.860333E-3,7.532886E-2,-8.709309E-2,1.3887416E-2,-1.1262663E-2,-8.585098E-2,-2.3689708E-2,6.0795296E-2],"split_indices":[3,1,1,3,1,4,7,0,0,0,0,0,0,0,0],"split_type":[0,0,0,0,0,0,0,0,0,0,0,0,0,0,0],"sum_hessian":[1.7757187E1,1.2519053E1,5.238133E0,7.8547173E0,4.664336E0,2.2218037E0,3.0163293E0,4.3150187E0,3.5396984E0,1.4100721E0,3.2542639E0,1.1752434E0,1.0465602E0,1.759769E0,1.2565602E0],"tree_param":{"num_deleted":"0","num_feature":"10","num_nodes":"15","size_leaf_vector":"1"}},{"base_weights":[1.9066805E-3,-3.3138987E-1,6.5595634E-2,2.848209E-3,-5.3676464E-2,5.75229E-2,-7.455918E-3,-2.742727E-2,1.12539185E-2],"categories":[],"categories_nodes":[],"categories_segments":[],"categories_sizes":[],"default_left":[0,0,0,0,0,0,0,0,0],"id":80,"left_children":[1,3,5,-1,-1,-1,7,-1,-1],"loss_changes":[4.1537267E-1,2.4737906E-1,6.149851E-1,0E0,0E0,0E0,5.2181804E-1,0E0,0E0],"parents":[2147483647,0,0,1,1,2,2,6,6],"right_children":[2,4,6,-1,-1,-1,8,-1,-1],"split_conditions":[7.197375E1,9.99425E1,7.4365E1,2.848209E-3,-5.3676464E-2,5.75229E-2,8.031875E1,-2.742727E-2,1.12539185E-2],"split_indices":[5,7,5,0,0,0,5,0,0],"split_type":[0,0,0,0,0,0,0,0,0],"sum_hessian":[1.7543797E1,2.140242E0,1.5403554E1,1.0905758E0,1.0496664E0,1.0693191E0,1.4334234E1,4.04786E0,1.0286375E1],"tree_param":{"num_deleted":"0","num_feature":"10","num_nodes":"9","size_leaf_vector":"1"}},{"base_weights":[1.3028776E-3,-2.864551E-1,7.358157E-2,1.5424137E-2,-5.755307E-2,-1.728857E-1,2.5133285E-1,3.318458E-2,-4.331759E-2,7.375167E-2,-6.935257E-4],"categories":[],"categories_nodes":[],"categories_segments":[],"categories_sizes":[],"default_left":[0,0,0,0,0,0,0,0,0,0,0],"id":81,"left_children":[1,3,5,-1,-1,7,9,-1,-1,-1,-1],"loss_changes":[4.046812E-1,5.8649945E-1,7.241073E-1,0E0,0E0,1.0768399E0,1.1897218E0,0E0,0E0,0E0,0E0],"parents":[2147483647,0,0,1,1,2,2,5,5,6,6],"right_children":[2,4,6,-1,-1,8,10,-1,-1,-1,-1],"split_conditions":[1.375275E2,2.5788317E1,7.850375E1,1.5424137E-2,-5.755307E-2,6.658E1,1.5710625E2,3.318458E-2,-4.331759E-2,7.375167E-2,-6.935257E-4],"split_indices":[8,3,5,0,0,9,8,0,0,0,0],"split_type":[0,0,0,0,0,0,0,0,0,0,0],"sum_hessian":[1.7443562E1,2.9069855E0,1.4536575E1,1.3362706E0,1.5707151E0,6.1024218E0,8.434154E0,1.9827477E0,4.119674E0,2.2822485E0,6.1519055E0],"tree_param":{"num_deleted":"0","num_feature":"10","num_nodes":"11","size_leaf_vector":"1"}},{"base_weights":[2.66025E-3,3.858412E-2,-5.1719904E-2,-2.243717E-1,1.4834453E-1,-3.784838E-2,2.1608457E-2,5.0234675E-2,-1.3710539E-2],"categories":[],"categories_nodes":[],"categories_segments":[],"categories_sizes":[],"default_left":[0,0,0,0,0,0,0,0,0],"id":82,"left_children":[1,-1,3,5,7,-1,-1,-1,-1],"loss_changes":[4.0094027E-1,0E0,6.1679924E-1,7.2432125E-1,9.204564E-1,0E0,0E0,0E0,0E0],"parents":[2147483647,0,0,2,2,3,3,4,4],"right_children":[2,-1,4,6,8,-1,-1,-1,-1],"split_conditions":[9.51E-1,3.858412E-2,9.9125E-1,1.7535E2,6.658E1,-3.784838E-2,2.1608457E-2,5.0234675E-2,-1.3710539E-2],"split_indices":[6,0,6,1,9,0,0,0,0],"split_type":[0,0,0,0,0,0,0,0,0],"sum_hessian":[1.7283659E1,1.390496E0,1.5893163E1,8.465822E0,7.4273405E0,6.3757124E0,2.0901098E0,2.9763556E0,4.450985E0],"tree_param":{"num_deleted":"0","num_feature":"10","num_nodes":"9","size_leaf_vector":"1"}},{"base_weights":[5.8886996E-3,1.281683E-1,-1.5279122E-1,-4.2084128E-2,2.791359E-1,4.1245673E-2,-6.0298156E-2,-2.590142E-2,5.0790574E-2,-2.8082738E-2,3.4938406E-2],"categories":[],"categories_nodes":[],"categories_segments":[],"categories_sizes":[],"default_left":[0,0,0,0,0,0,0,0,0,0,0],"id":83,"left_children":[1,3,5,-1,7,9,-1,-1,-1,-1,-1],"loss_changes":[3.72619E-1,1.0142418E0,7.564449E-1,0E0,1.2503302E0,7.718175E-1,0E0,0E0,0E0,0E0,0E0],"parents":[2147483647,0,0,1,1,2,2,4,4,5,5],"right_children":[2,4,6,-1,8,10,-1,-1,-1,-1,-1],"split_conditions":[4.7E1,1.348275E2,1.6425125E2,-4.2084128E-2,7.60675E1,8.10575E1,-6.0298156E-2,-2.590142E-2,5.0790574E-2,-2.8082738E-2,3.4938406E-2],"split_indices":[0,8,8,0,5,4,0,0,0,0,0],"split_type":[0,0,0,0,0,0,0,0,0,0,0],"sum_hessian":[1.7194624E1,9.819754E0,7.374871E0,1.7323292E0,8.087424E0,5.7883925E0,1.5864779E0,2.373017E0,5.714407E0,2.873539E0,2.9148538E0],"tree_param":{"num_deleted":"0","num_feature":"10","num_nodes":"11","size_leaf_vector":"1"}},{"base_weights":[1.8244992E-3,-2.4216859E-1,8.385318E-2,-4.3734148E-1,2.0521106E-2,-1.7981862E-1,2.6287082E-1,-2.7870901E-3,-6.732131E-2,3.4542967E-2,-3.8182117E-2,7.594224E-2,-2.9552605E-3],"categories":[],"categories_nodes":[],"categories_segments":[],"categories_sizes":[],"default_left":[0,0,0,0,0,0,0,0,0,0,0,0,0],"id":84,"left_children":[1,3,5,7,-1,9,11,-1,-1,-1,-1,-1,-1],"loss_changes":[3.8103727E-1,5.081682E-1,7.190239E-1,3.3432543E-1,0E0,8.055135E-1,1.3122374E0,0E0,0E0,0E0,0E0,0E0,0E0],"parents":[2147483647,0,0,1,1,2,2,3,3,5,5,6,6],"right_children":[2,4,6,8,-1,10,12,-1,-1,-1,-1,-1,-1],"split_conditions":[9.237375E1,1.6129375E2,7.5005E1,1.5024875E2,2.0521106E-2,6.405E1,8.47175E1,-2.7870901E-3,-6.732131E-2,3.4542967E-2,-3.8182117E-2,7.594224E-2,-2.9552605E-3],"split_indices":[7,8,4,8,0,2,4,0,0,0,0,0,0],"split_type":[0,0,0,0,0,0,0,0,0,0,0,0,0],"sum_hessian":[1.7023527E1,3.792009E0,1.3231519E1,2.655823E0,1.136186E0,5.3488383E0,7.88268E0,1.3793856E0,1.2764374E0,1.288485E0,4.0603533E0,2.329708E0,5.552972E0],"tree_param":{"num_deleted":"0","num_feature":"10","num_nodes":"13","size_leaf_vector":"1"}},{"base_weights":[3.1520857E-3,3.705863E-2,-4.867074E-2,-2.068791E-1,1.3608347E-1,-5.1573362E-2,2.4673652E-3,3.6587413E-2,-2.8326163E-2],"categories":[],"categories_nodes":[],"categories_segments":[],"categories_sizes":[],"default_left":[0,0,0,0,0,0,0,0,0],"id":85,"left_children":[1,-1,3,5,7,-1,-1,-1,-1],"loss_changes":[3.583506E-1,0E0,5.1181686E-1,6.785892E-1,8.973052E-1,0E0,0E0,0E0,0E0],"parents":[2147483647,0,0,2,2,3,3,4,4],"right_children":[2,-1,4,6,8,-1,-1,-1,-1],"split_conditions":[9.51E-1,3.705863E-2,9.9125E-1,3E1,2.7386549E1,-5.1573362E-2,2.4673652E-3,3.6587413E-2,-2.8326163E-2],"split_indices":[6,0,6,0,3,0,0,0,0],"split_type":[0,0,0,0,0,0,0,0,0],"sum_hessian":[1.687224E1,1.3252102E0,1.55470295E1,8.310686E0,7.236344E0,3.0350838E0,5.2756023E0,4.757088E0,2.4792557E0],"tree_param":{"num_deleted":"0","num_feature":"10","num_nodes":"9","size_leaf_vector":"1"}},{"base_weights":[2.8039461E-3,-1.5620737E-1,1.1855409E-1,1.2356108E-1,-5.689834E-1,5.601168E-1,-1.110513E-1,-2.0854032E-2,5.907621E-2,-1.3122715E-2,-7.888101E-2,8.483415E-3,7.15743E-2,-5.573479E-2,1.8268889E-2],"categories":[],"categories_nodes":[],"categories_segments":[],"categories_sizes":[],"default_left":[0,0,0,0,0,0,0,0,0,0,0,0,0,0,0],"id":86,"left_children":[1,3,5,7,9,11,13,-1,-1,-1,-1,-1,-1,-1,-1],"loss_changes":[3.4570634E-1,9.8495245E-1,1.1628636E0,9.8313E-1,2.2155237E-1,2.2622275E-1,1.1475523E0,0E0,0E0,0E0,0E0,0E0,0E0,0E0,0E0],"parents":[2147483647,0,0,1,1,2,2,3,3,4,4,5,5,6,6],"right_children":[2,4,6,8,10,12,14,-1,-1,-1,-1,-1,-1,-1,-1],"split_conditions":[1.6405E2,2.6559046E1,1.6975E2,2.3165558E1,9.162875E1,2.2859785E1,7.415E1,-2.0854032E-2,5.907621E-2,-1.3122715E-2,-7.888101E-2,8.483415E-3,7.15743E-2,-5.573479E-2,1.8268889E-2],"split_indices":[1,3,1,3,4,3,2,0,0,0,0,0,0,0,0],"split_type":[0,0,0,0,0,0,0,0,0,0,0,0,0,0,0],"sum_hessian":[1.6776527E1,6.920287E0,9.856239E0,4.542298E0,2.3779888E0,2.8793595E0,6.97688E0,2.978631E0,1.5636669E0,1.3288047E0,1.0491841E0,1.0913843E0,1.7879752E0,2.4130995E0,4.563781E0],"tree_param":{"num_deleted":"0","num_feature":"10","num_nodes":"15","size_leaf_vector":"1"}},{"base_weights":[2.2964175E-3,-2.3236905E-1,8.211539E-2,1.42921405E-2,-4.5258954E-1,-1.1900815E-2,5.9251267E-2,-5.569606E-2,-1.15300305E-2,2.193985E-2,-3.9280955E-2],"categories":[],"categories_nodes":[],"categories_segments":[],"categories_sizes":[],"default_left":[0,0,0,0,0,0,0,0,0,0,0],"id":87,"left_children":[1,3,5,-1,7,9,-1,-1,-1,-1,-1],"loss_changes":[3.4885114E-1,4.5557216E-1,6.729086E-1,0E0,4.9157858E-2,1.2049308E0,0E0,0E0,0E0,0E0,0E0],"parents":[2147483647,0,0,1,1,2,2,4,4,5,5],"right_children":[2,4,6,-1,8,10,-1,-1,-1,-1,-1],"split_conditions":[9.237375E1,8.93975E1,1.6809125E2,1.42921405E-2,8.10575E1,1.6225874E2,5.9251267E-2,-5.569606E-2,-1.15300305E-2,2.193985E-2,-3.9280955E-2],"split_indices":[7,7,8,0,4,8,0,0,0,0,0],"split_type":[0,0,0,0,0,0,0,0,0,0,0],"sum_hessian":[1.6605804E1,3.7296224E0,1.2876183E1,1.5090207E0,2.2206018E0,1.1698059E1,1.1781229E0,1.1984634E0,1.0221382E0,7.5422125E0,4.155847E0],"tree_param":{"num_deleted":"0","num_feature":"10","num_nodes":"11","size_leaf_vector":"1"}},{"base_weights":[1.639297E-3,-2.6909688E-1,7.065006E-2,1.4509578E-2,-5.357579E-2,3.664448E-1,-6.435912E-2,6.426755E-2,-2.988602E-2,-3.842379E-2,1.3106622E-2],"categories":[],"categories_nodes":[],"categories_segments":[],"categories_sizes":[],"default_left":[0,0,0,0,0,0,0,0,0,0,0],"id":88,"left_children":[1,3,5,-1,-1,7,9,-1,-1,-1,-1],"loss_changes":[3.461239E-1,4.9349073E-1,6.123723E-1,0E0,0E0,1.0686703E0,7.3635745E-1,0E0,0E0,0E0,0E0],"parents":[2147483647,0,0,1,1,2,2,5,5,6,6],"right_children":[2,4,6,-1,-1,8,10,-1,-1,-1,-1],"split_conditions":[1.375275E2,2.5788317E1,1.56775E2,1.4509578E-2,-5.357579E-2,5.5E1,2.3165558E1,6.426755E-2,-2.988602E-2,-3.842379E-2,1.3106622E-2],"split_indices":[8,3,8,0,0,0,3,0,0,0,0],"split_type":[0,0,0,0,0,0,0,0,0,0,0],"sum_hessian":[1.6507883E1,2.7642207E0,1.3743662E1,1.2611742E0,1.5030465E0,3.769894E0,9.973768E0,2.6879048E0,1.0819888E0,3.416069E0,6.557699E0],"tree_param":{"num_deleted":"0","num_feature":"10","num_nodes":"11","size_leaf_vector":"1"}},{"base_weights":[3.5561647E-5,-6.570756E-2,2.8553525E-1,5.939372E-3,-5.1935602E-2,6.0459893E-2,-2.2729425E-2,-3.550627E-2,1.1533615E-2],"categories":[],"categories_nodes":[],"categories_segments":[],"categories_sizes":[],"default_left":[0,0,0,0,0,0,0,0,0],"id":89,"left_children":[1,3,5,7,-1,-1,-1,-1,-1],"loss_changes":[3.4451884E-1,4.8802134E-1,6.9956553E-1,5.888573E-1,0E0,0E0,0E0,0E0,0E0],"parents":[2147483647,0,0,1,1,2,2,3,3],"right_children":[2,4,6,8,-1,-1,-1,-1,-1],"split_conditions":[1.02575E0,1.013125E0,5.5E1,1.375275E2,-5.1935602E-2,6.0459893E-2,-2.2729425E-2,-3.550627E-2,1.1533615E-2],"split_indices":[6,6,0,8,0,0,0,0,0],"split_type":[0,0,0,0,0,0,0,0,0],"sum_hessian":[1.635553E1,1.3919974E1,2.4355557E0,1.2873678E1,1.0462956E0,1.3911105E0,1.0444452E0,2.4716752E0,1.0402003E1],"tree_param":{"num_deleted":"0","num_feature":"10","num_nodes":"9","size_leaf_vector":"1"}},{"base_weights":[-2.0008418E-3,-8.538254E-2,2.1495669E-1,9.990716E-2,-3.372798E-1,4.595155E-1,-3.366107E-2,-1.2353574E-2,5.465847E-2,-5.2724328E-2,2.5942046E-2,1.3478987E-2,6.1649747E-2],"categories":[],"categories_nodes":[],"categories_segments":[],"categories_sizes":[],"default_left":[0,0,0,0,0,0,0,0,0,0,0,0,0],"id":90,"left_children":[1,3,5,7,9,11,-1,-1,-1,-1,-1,-1,-1],"loss_changes":[3.3056432E-1,6.4899033E-1,8.3933866E-1,9.0261817E-1,7.9599357E-1,1.17712796E-1,0E0,0E0,0E0,0E0,0E0,0E0,0E0],"parents":[2147483647,0,0,1,1,2,2,3,3,4,4,5,5],"right_children":[2,4,6,8,10,12,-1,-1,-1,-1,-1,-1,-1],"split_conditions":[7.71625E1,6.94675E1,9.689E1,6.292E1,9.0015E1,3.4E1,-3.366107E-2,-1.2353574E-2,5.465847E-2,-5.2724328E-2,2.5942046E-2,1.3478987E-2,6.1649747E-2],"split_indices":[9,9,9,9,5,0,0,0,0,0,0,0,0],"split_type":[0,0,0,0,0,0,0,0,0,0,0,0,0],"sum_hessian":[1.6258474E1,1.2182801E1,4.075672E0,7.36711E0,4.815692E0,2.9393075E0,1.1363646E0,5.3928576E0,1.9742521E0,3.7410922E0,1.0745997E0,1.5635835E0,1.3757241E0],"tree_param":{"num_deleted":"0","num_feature":"10","num_nodes":"13","size_leaf_vector":"1"}},{"base_weights":[1.8309623E-3,-6.1218075E-2,2.7874047E-1,6.2276106E-3,-4.8332136E-2,5.8890548E-2,-2.071813E-2,-1.0161123E-2,3.3485733E-2],"categories":[],"categories_nodes":[],"categories_segments":[],"categories_sizes":[],"default_left":[0,0,0,0,0,0,0,0,0],"id":91,"left_children":[1,3,5,7,-1,-1,-1,-1,-1],"loss_changes":[3.16334E-1,4.2384744E-1,6.282861E-1,5.207094E-1,0E0,0E0,0E0,0E0,0E0],"parents":[2147483647,0,0,1,1,2,2,3,3],"right_children":[2,4,6,8,-1,-1,-1,-1,-1],"split_conditions":[1.02575E0,1.013125E0,5.5E1,1.65345E2,-4.8332136E-2,5.8890548E-2,-2.071813E-2,-1.0161123E-2,3.3485733E-2],"split_indices":[6,6,0,8,0,0,0,0,0],"split_type":[0,0,0,0,0,0,0,0,0],"sum_hessian":[1.6141424E1,1.3782284E1,2.3591404E0,1.2732992E1,1.0492922E0,1.3106284E0,1.048512E0,1.01071615E1,2.625831E0],"tree_param":{"num_deleted":"0","num_feature":"10","num_nodes":"9","size_leaf_vector":"1"}},{"base_weights":[2.6209205E-3,-2.9399678E-2,6.0689434E-2,-2.2456841E-1,1.6971546E-1,-4.0508527E-2,1.9037507E-2,2.867794E-2,-3.012528E-2],"categories":[],"categories_nodes":[],"categories_segments":[],"categories_sizes":[],"default_left":[0,0,0,0,0,0,0,0,0],"id":92,"left_children":[1,-1,3,5,7,-1,-1,-1,-1],"loss_changes":[3.119569E-1,0E0,5.0801045E-1,4.2230162E-1,7.204641E-1,0E0,0E0,0E0,0E0],"parents":[2147483647,0,0,2,2,3,3,4,4],"right_children":[2,-1,4,6,8,-1,-1,-1,-1],"split_conditions":[7.197375E1,-2.9399678E-2,9.237375E1,1.6129375E2,1.05925E2,-4.0508527E-2,1.9037507E-2,2.867794E-2,-3.012528E-2],"split_indices":[5,0,7,8,7,0,0,0,0],"split_type":[0,0,0,0,0,0,0,0,0],"sum_hessian":[1.60757E1,1.9667068E0,1.41089945E1,3.6083272E0,1.0500668E1,2.531E0,1.0773273E0,8.723451E0,1.7772168E0],"tree_param":{"num_deleted":"0","num_feature":"10","num_nodes":"9","size_leaf_vector":"1"}},{"base_weights":[-5.6212506E-4,3.4510594E-2,-4.9708072E-2,-2.0500366E-1,1.3254288E-1,-5.01433E-2,2.2593122E-3,3.5102047E-2,-2.5555065E-2],"categories":[],"categories_nodes":[],"categories_segments":[],"categories_sizes":[],"default_left":[0,0,0,0,0,0,0,0,0],"id":93,"left_children":[1,-1,3,5,7,-1,-1,-1,-1],"loss_changes":[3.053483E-1,0E0,4.7228265E-1,6.106994E-1,7.5469E-1,0E0,0E0,0E0,0E0],"parents":[2147483647,0,0,2,2,3,3,4,4],"right_children":[2,-1,4,6,8,-1,-1,-1,-1],"split_conditions":[9.51E-1,3.4510594E-2,9.9125E-1,3E1,2.7386549E1,-5.01433E-2,2.2593122E-3,3.5102047E-2,-2.5555065E-2],"split_indices":[6,0,6,0,3,0,0,0,0],"split_type":[0,0,0,0,0,0,0,0,0],"sum_hessian":[1.5964366E1,1.2376055E0,1.4726761E1,7.8839893E0,6.842771E0,2.9016385E0,4.982351E0,4.4392295E0,2.4035416E0],"tree_param":{"num_deleted":"0","num_feature":"10","num_nodes":"9","size_leaf_vector":"1"}},{"base_weights":[-6.0039817E-4,-5.2583504E-2,3.2413702E-2,6.608791E-2,-2.6422283E-1,-1.5060837E-2,3.6529295E-2,-7.984522E-2,1.2694383E-2],"categories":[],"categories_nodes":[],"categories_segments":[],"categories_sizes":[],"default_left":[0,0,0,0,0,0,0,0,0],"id":94,"left_children":[1,3,-1,5,7,-1,-1,-1,-1],"loss_changes":[3.0194283E-1,4.0445724E-1,0E0,7.469943E-1,1.3000171E0,0E0,0E0,0E0,0E0],"parents":[2147483647,0,0,1,1,3,3,4,4],"right_children":[2,4,-1,6,8,-1,-1,-1,-1],"split_conditions":[1.04325E0,8.843875E1,3.2413702E-2,8.031875E1,9.243875E1,-1.5060837E-2,3.6529295E-2,-7.984522E-2,1.2694383E-2],"split_indices":[6,4,0,5,5,0,0,0,0],"split_type":[0,0,0,0,0,0,0,0,0],"sum_hessian":[1.5877018E1,1.4408601E1,1.4684172E0,9.672644E0,4.7359576E0,5.897834E0,3.7748096E0,1.5617781E0,3.1741796E0],"tree_param":{"num_deleted":"0","num_feature":"10","num_nodes":"9","size_leaf_vector":"1"}},{"base_weights":[-1.2102362E-3,5.432118E-2,-3.0033413E-2,-6.2075123E-2,4.2514858E-1,8.121052E-3,-5.0071236E-2,6.9323294E-2,-1.3743249E-2],"categories":[],"categories_nodes":[],"categories_segments":[],"categories_sizes":[],"default_left":[0,0,0,0,0,0,0,0,0],"id":95,"left_children":[1,3,-1,5,7,-1,-1,-1,-1],"loss_changes":[2.945678E-1,6.727691E-1,0E0,8.1185913E-1,6.5405214E-1,0E0,0E0,0E0,0E0],"parents":[2147483647,0,0,1,1,3,3,4,4],"right_children":[2,4,-1,6,8,-1,-1,-1,-1],"split_conditions":[1.05925E2,9.288875E1,-3.0033413E-2,8.843875E1,1.02395E2,8.121052E-3,-5.0071236E-2,6.9323294E-2,-1.3743249E-2],"split_indices":[7,5,0,4,5,0,0,0,0],"split_type":[0,0,0,0,0,0,0,0,0],"sum_hessian":[1.5751373E1,1.3975302E1,1.776072E0,1.127034E1,2.704961E0,9.109485E0,2.1608555E0,1.6746911E0,1.0302701E0],"tree_param":{"num_deleted":"0","num_feature":"10","num_nodes":"9","size_leaf_vector":"1"}},{"base_weights":[-1.8488505E-3,-6.369165E-2,2.711274E-1,3.326215E-2,-1.24740094E-1,5.6959342E-2,-1.8414713E-2,-2.860204E-2,8.795115E-3],"categories":[],"categories_nodes":[],"categories_segments":[],"categories_sizes":[],"default_left":[0,0,0,0,0,0,0,0,0],"id":96,"left_children":[1,3,5,-1,7,-1,-1,-1,-1],"loss_changes":[2.9851124E-1,3.8970375E-1,5.488708E-1,0E0,4.7790343E-1,0E0,0E0,0E0,0E0],"parents":[2147483647,0,0,1,1,2,2,4,4],"right_children":[2,4,6,-1,8,-1,-1,-1,-1],"split_conditions":[1.02575E0,9.51E-1,5.5E1,3.326215E-2,2.50189E1,5.6959342E-2,-1.8414713E-2,-2.860204E-2,8.795115E-3],"split_indices":[6,6,0,0,3,0,0,0,0],"split_type":[0,0,0,0,0,0,0,0,0],"sum_hessian":[1.56597E1,1.3392341E1,2.2673597E0,1.1938223E0,1.2198519E1,1.2178624E0,1.0494975E0,6.7416596E0,5.4568586E0],"tree_param":{"num_deleted":"0","num_feature":"10","num_nodes":"9","size_leaf_vector":"1"}},{"base_weights":[1.6408492E-3,-2.8214484E-2,5.8258355E-2,-2.0772997E-1,1.6091283E-1,1.4795206E-2,-4.187358E-2,2.7472174E-2,-2.8238578E-2],"categories":[],"categories_nodes":[],"categories_segments":[],"categories_sizes":[],"default_left":[0,0,0,0,0,0,0,0,0],"id":97,"left_children":[1,-1,3,5,7,-1,-1,-1,-1],"loss_changes":[2.8316253E-1,0E0,4.339437E-1,4.0126833E-1,6.3996875E-1,0E0,0E0,0E0,0E0],"parents":[2147483647,0,0,2,2,3,3,4,4],"right_children":[2,-1,4,6,8,-1,-1,-1,-1],"split_conditions":[7.197375E1,-2.8214484E-2,9.237375E1,8.93975E1,1.05925E2,1.4795206E-2,-4.187358E-2,2.7472174E-2,-2.8238578E-2],"split_indices":[5,0,7,7,7,0,0,0,0],"split_type":[0,0,0,0,0,0,0,0,0],"sum_hessian":[1.5600566E1,1.9322314E0,1.3668335E1,3.521133E0,1.0147202E1,1.4223586E0,2.0987742E0,8.37687E0,1.770332E0],"tree_param":{"num_deleted":"0","num_feature":"10","num_nodes":"9","size_leaf_vector":"1"}},{"base_weights":[-1.7843794E-3,-6.0559645E-2,2.6044425E-1,3.2022886E-2,-1.185704E-1,5.6195647E-2,-1.9149465E-2,-2.6222536E-2,7.339054E-3],"categories":[],"categories_nodes":[],"categories_segments":[],"categories_sizes":[],"default_left":[0,0,0,0,0,0,0,0,0],"id":98,"left_children":[1,3,5,-1,7,-1,-1,-1,-1],"loss_changes":[2.7005604E-1,3.536106E-1,5.449543E-1,0E0,3.8131148E-1,0E0,0E0,0E0,0E0],"parents":[2147483647,0,0,1,1,2,2,4,4],"right_children":[2,4,6,-1,8,-1,-1,-1,-1],"split_conditions":[1.02575E0,9.51E-1,8.135E1,3.2022886E-2,2.50189E1,5.6195647E-2,-1.9149465E-2,-2.6222536E-2,7.339054E-3],"split_indices":[6,6,2,0,3,0,0,0,0],"split_type":[0,0,0,0,0,0,0,0,0],"sum_hessian":[1.5498471E1,1.3288973E1,2.209499E0,1.1592666E0,1.2129706E1,1.1792948E0,1.030204E0,6.728422E0,5.4012837E0],"tree_param":{"num_deleted":"0","num_feature":"10","num_nodes":"9","size_leaf_vector":"1"}},{"base_weights":[1.6045583E-3,-2.4578084E-1,6.502779E-2,1.5408856E-2,-5.0354343E-2,3.661868E-1,-7.298085E-2,6.2185705E-2,-2.5415136E-2,-5.5091392E-2,5.3622085E-3],"categories":[],"categories_nodes":[],"categories_segments":[],"categories_sizes":[],"default_left":[0,0,0,0,0,0,0,0,0,0,0],"id":99,"left_children":[1,3,5,-1,-1,7,9,-1,-1,-1,-1],"loss_changes":[2.739818E-1,4.4500628E-1,6.035666E-1,0E0,0E0,8.761366E-1,6.5587246E-1,0E0,0E0,0E0,0E0],"parents":[2147483647,0,0,1,1,2,2,5,5,6,6],"right_children":[2,4,6,-1,-1,8,10,-1,-1,-1,-1],"split_conditions":[1.375275E2,2.5788317E1,1.56775E2,1.5408856E-2,-5.0354343E-2,5.5E1,1.5807875E2,6.2185705E-2,-2.5415136E-2,-5.5091392E-2,5.3622085E-3],"split_indices":[8,3,8,0,0,0,8,0,0,0,0],"split_type":[0,0,0,0,0,0,0,0,0,0,0],"sum_hessian":[1.5443565E1,2.5646753E0,1.287889E1,1.1628866E0,1.4017888E0,3.5276277E0,9.351262E0,2.4963267E0,1.031301E0,1.2564782E0,8.094784E0],"tree_param":{"num_deleted":"0","num_feature":"10","num_nodes":"11","size_leaf_vector":"1"}}]},"name":"gbtree"},"learner_model_param":{"base_score":"[8.993711E-1]","boost_from_average":"1","num_class":"0","num_feature":"10","num_target":"1"},"objective":{"name":"binary:logistic","reg_loss_param":{"scale_pos_weight":"1"}}},"version":[3,2,0]}